{"learner":{"attributes":{"scikit_learn":"{\"_estimator_type\": \"regressor\"}"},"feature_names":[],"feature_types":[],"gradient_booster":{"model":{"gbtree_model_param":{"num_parallel_tree":"1","num_trees":"100"},"iteration_indptr":[0,1,2,3,4,5,6,7,8,9,10,11,12,13,14,15,16,17,18,19,20,21,22,23,24,25,26,27,28,29,30,31,32,33,34,35,36,37,38,39,40,41,42,43,44,45,46,47,48,49,50,51,52,53,54,55,56,57,58,59,60,61,62,63,64,65,66,67,68,69,70,71,72,73,74,75,76,77,78,79,80,81,82,83,84,85,86,87,88,89,90,91,92,93,94,95,96,97,98,99,100],"tree_info":[0,0,0,0,0,0,0,0,0,0,0,0,0,0,0,0,0,0,0,0,0,0,0,0,0,0,0,0,0,0,0,0,0,0,0,0,0,0,0,0,0,0,0,0,0,0,0,0,0,0,0,0,0,0,0,0,0,0,0,0,0,0,0,0,0,0,0,0,0,0,0,0,0,0,0,0,0,0,0,0,0,0,0,0,0,0,0,0,0,0,0,0,0,0,0,0,0,0,0,0],"trees":[{"base_weights":[7.7511645E-3,-4.0996934E4,3.0678297E5,-1.0951432E5,1.4025589E4,6.5804075E5,2.1691992E5,-1.4654798E5,-4.5526793E4,1.8521505E5,-2.8066375E4,4.9621294E5,1.4506395E6,4.6368406E5,1.342567E5,-3.259588E4,-1.7990803E4,-2.9388322E4,-3.147415E3,-1.8122415E3,9.580272E4,4.643011E3,-1.924615E4,7.411896E4,1.5002812E5,3.276636E4,3.0734062E5,8.190068E4,4.491196E5,2.2466318E4,1.0482277E5],"categories":[],"categories_nodes":[],"categories_segments":[],"categories_sizes":[],"default_left":[0,0,0,0,0,0,0,0,0,0,0,0,0,0,0,0,0,0,0,0,0,0,0,0,0,0,0,0,0,0,0],"id":0,"left_children":[1,3,5,7,9,11,13,15,17,19,21,23,25,27,29,-1,-1,-1,-1,-1,-1,-1,-1,-1,-1,-1,-1,-1,-1,-1,-1],"loss_changes":[9.452996E13,2.4996632E13,2.782394E13,6.9910324E12,2.6507764E13,2.2367787E13,1.4359357E13,1.724291E12,3.2725805E12,4.144303E13,1.0324643E13,4.538585E12,3.0706625E12,1.6168937E13,4.479933E12,0E0,0E0,0E0,0E0,0E0,0E0,0E0,0E0,0E0,0E0,0E0,0E0,0E0,0E0,0E0,0E0],"parents":[2147483647,0,0,1,1,2,2,3,3,4,4,5,5,6,6,7,7,8,8,9,9,10,10,11,11,12,12,13,13,14,14],"right_children":[2,4,6,8,10,12,14,16,18,20,22,24,26,28,30,-1,-1,-1,-1,-1,-1,-1,-1,-1,-1,-1,-1,-1,-1,-1,-1],"split_conditions":[8.92139E-1,8.371206E-2,-1.1138059E0,2.2071284E-1,8.350521E-1,3.0841775E0,-5.0897074E-1,8.032187E-1,-7.155413E-1,9.617791E-1,7.597105E-2,8.032187E-1,-9.368376E-1,-5.1923287E-1,5.071777E0,-3.259588E4,-1.7990803E4,-2.9388322E4,-3.147415E3,-1.8122415E3,9.580272E4,4.643011E3,-1.924615E4,7.411896E4,1.5002812E5,3.276636E4,3.0734062E5,8.190068E4,4.491196E5,2.2466318E4,1.0482277E5],"split_indices":[3,2,0,1,14,3,5,7,2,0,5,7,7,5,3,0,0,0,0,0,0,0,0,0,0,0,0,0,0,0,0],"split_type":[0,0,0,0,0,0,0,0,0,0,0,0,0,0,0,0,0,0,0,0,0,0,0,0,0,0,0,0,0,0,0],"sum_hessian":[7.514E3,6.629E3,8.85E2,2.952E3,3.677E3,1.79E2,7.06E2,1.869E3,1.083E3,7.25E2,2.952E3,1.5E2,2.9E1,1.76E2,5.3E2,1.447E3,4.22E2,2.45E2,8.38E2,4.37E2,2.88E2,1.685E3,1.267E3,1.02E2,4.8E1,2E0,2.7E1,1.72E2,4E0,5.03E2,2.7E1],"tree_param":{"num_deleted":"0","num_feature":"15","num_nodes":"31","size_leaf_vector":"1"}},{"base_weights":[1.6219366E2,-5.5644816E4,1.6350112E5,-9.11633E4,1.0974047E4,1.2601721E5,5.2389603E5,-5.6005543E4,-1.596459E5,5.388347E5,-8.199718E4,5.644076E5,9.512786E4,1.03030375E6,3.4236575E5,-2.1643275E4,9.0129376E2,-3.931898E4,-2.6220291E4,-7.2635312E3,1.3449242E5,-2.3035E4,-6.8458647E3,4.7776825E5,8.4545305E4,3.0016531E4,1.0471547E2,1.67223E5,2.8566238E5,1.972073E5,5.3012395E4],"categories":[],"categories_nodes":[],"categories_segments":[],"categories_sizes":[],"default_left":[0,0,0,0,0,0,0,0,0,0,0,0,0,0,0,0,0,0,0,0,0,0,0,0,0,0,0,0,0,0,0],"id":1,"left_children":[1,3,5,7,9,11,13,15,17,19,21,23,25,27,29,-1,-1,-1,-1,-1,-1,-1,-1,-1,-1,-1,-1,-1,-1,-1,-1],"loss_changes":[6.851176E13,1.3256455E13,2.5790226E13,8.788778E12,9.569301E13,2.3440975E13,1.6194363E13,7.633555E12,1.2809887E12,2.2466412E13,2.6237123E12,2.8457778E13,8.4326346E12,2.4383335E12,6.406234E12,0E0,0E0,0E0,0E0,0E0,0E0,0E0,0E0,0E0,0E0,0E0,0E0,0E0,0E0,0E0,0E0],"parents":[2147483647,0,0,1,1,2,2,3,3,4,4,5,5,6,6,7,7,8,8,9,9,10,10,11,11,12,12,13,13,14,14],"right_children":[2,4,6,8,10,12,14,16,18,20,22,24,26,28,30,-1,-1,-1,-1,-1,-1,-1,-1,-1,-1,-1,-1,-1,-1,-1,-1],"split_conditions":[3.242534E-1,8.948042E-1,2.6525843E0,-3.8090882E-1,9.9367195E-1,8.350521E-1,-1.1138059E0,-4.8214415E-1,-3.799247E-1,9.904826E-1,-2.4363218E-1,3.3561113E-1,1.01626396E-1,4.049583E0,-7.706552E-1,-2.1643275E4,9.0129376E2,-3.931898E4,-2.6220291E4,-7.2635312E3,1.3449242E5,-2.3035E4,-6.8458647E3,4.7776825E5,8.4545305E4,3.0016531E4,1.0471547E2,1.67223E5,2.8566238E5,1.972073E5,5.3012395E4],"split_indices":[3,0,3,0,0,14,0,3,3,0,3,3,5,3,5,0,0,0,0,0,0,0,0,0,0,0,0,0,0,0,0],"split_type":[0,0,0,0,0,0,0,0,0,0,0,0,0,0,0,0,0,0,0,0,0,0,0,0,0,0,0,0,0,0,0],"sum_hessian":[7.514E3,5.601E3,1.913E3,3.653E3,1.948E3,1.734E3,1.79E2,2.415E3,1.238E3,2.91E2,1.657E3,1.13E2,1.621E3,4.6E1,1.33E2,1.296E3,1.119E3,5.37E2,7.01E2,5.5E1,2.36E2,9.77E2,6.8E2,7E0,1.06E2,1.025E3,5.96E2,3.3E1,1.3E1,1.3E1,1.2E2],"tree_param":{"num_deleted":"0","num_feature":"15","num_nodes":"31","size_leaf_vector":"1"}},{"base_weights":[3.0362305E2,-2.1050807E4,2.8064016E5,-5.371277E4,4.906419E4,5.555912E5,1.8480952E5,-7.8949555E4,2.3200062E4,3.458876E5,2.4123885E4,3.8723697E5,8.233387E5,9.890412E4,4.8878497E5,-2.6435115E4,-1.2315638E4,-9.385206E3,3.4815574E4,3.3539605E4,1.660653E5,1.2757252E4,-7.652282E3,5.6924844E4,1.158219E5,3.2861975E5,1.4792334E5,9.028917E3,7.0585625E4,6.1350074E4,2.1665267E5],"categories":[],"categories_nodes":[],"categories_segments":[],"categories_sizes":[],"default_left":[0,0,0,0,0,0,0,0,0,0,0,0,0,0,0,0,0,0,0,0,0,0,0,0,0,0,0,0,0,0,0],"id":2,"left_children":[1,3,5,7,9,11,13,15,17,19,21,23,25,27,29,-1,-1,-1,-1,-1,-1,-1,-1,-1,-1,-1,-1,-1,-1,-1,-1],"loss_changes":[4.49939E13,1.5996647E13,1.3914851E13,9.250852E12,1.642602E13,5.856641E12,1.0292457E13,3.3093583E12,1.2471964E13,1.4708134E13,5.0723815E12,1.5283886E12,2.353596E12,4.2174935E12,9.082468E12,0E0,0E0,0E0,0E0,0E0,0E0,0E0,0E0,0E0,0E0,0E0,0E0,0E0,0E0,0E0,0E0],"parents":[2147483647,0,0,1,1,2,2,3,3,4,4,5,5,6,6,7,7,8,8,9,9,10,10,11,11,12,12,13,13,14,14],"right_children":[2,4,6,8,10,12,14,16,18,20,22,24,26,28,30,-1,-1,-1,-1,-1,-1,-1,-1,-1,-1,-1,-1,-1,-1,-1,-1],"split_conditions":[1.3464475E0,5.1668335E-2,-1.0251439E0,8.032187E-1,8.350521E-1,2.4367878E0,4.8192653E-1,-6.680945E-2,9.617791E-1,9.617791E-1,8.623319E-2,8.032187E-1,1.8436179E-1,8.032187E-1,2.481472E0,-2.6435115E4,-1.2315638E4,-9.385206E3,3.4815574E4,3.3539605E4,1.660653E5,1.2757252E4,-7.652282E3,5.6924844E4,1.158219E5,3.2861975E5,1.4792334E5,9.028917E3,7.0585625E4,6.1350074E4,2.1665267E5],"split_indices":[3,3,0,7,14,3,1,7,0,0,5,7,6,7,2,0,0,0,0,0,0,0,0,0,0,0,0,0,0,0,0],"split_type":[0,0,0,0,0,0,0,0,0,0,0,0,0,0,0,0,0,0,0,0,0,0,0,0,0,0,0,0,0,0,0],"sum_hessian":[7.514E3,6.983E3,5.31E2,4.764E3,2.219E3,1.36E2,3.95E2,3.587E3,1.177E3,1.71E2,2.048E3,8.5E1,5.1E1,3.09E2,8.6E1,8.81E2,2.706E3,8.04E2,3.73E2,1.26E2,4.5E1,1.252E3,7.96E2,5.7E1,2.8E1,3E0,4.8E1,2.56E2,5.3E1,6.7E1,1.9E1],"tree_param":{"num_deleted":"0","num_feature":"15","num_nodes":"31","size_leaf_vector":"1"}},{"base_weights":[4.023517E2,-3.690892E4,1.0960682E5,-1.3679325E4,-9.282684E4,3.647775E5,8.077898E4,-5.9334605E4,2.8308916E4,-5.348661E4,-1.122872E5,3.3939366E5,3.7355E5,2.2320527E5,3.8183508E4,-1.6764396E4,-2.9758425E3,-2.2853052E3,1.9963174E4,-2.2443412E4,-5.727025E3,-2.8359E4,-1.6910541E4,4.379688E4,9.304333E4,3.0450753E5,3.7119883E4,4.0602266E3,4.1666145E4],"categories":[],"categories_nodes":[],"categories_segments":[],"categories_sizes":[],"default_left":[0,0,0,0,0,0,0,0,0,0,0,0,0,0,0,0,0,0,0,0,0,0,0,0,0,0,0,0,0],"id":3,"left_children":[1,3,5,7,9,11,13,15,17,19,21,23,-1,25,27,-1,-1,-1,-1,-1,-1,-1,-1,-1,-1,-1,-1,-1,-1],"loss_changes":[3.0624346E13,7.275452E12,1.4049954E13,7.591023E12,1.2525985E12,6.76743E12,1.0432294E13,2.0638188E12,5.8628673E12,7.936947E11,8.8741616E11,2.806973E12,0E0,1.9066975E13,4.0303054E12,0E0,0E0,0E0,0E0,0E0,0E0,0E0,0E0,0E0,0E0,0E0,0E0,0E0,0E0],"parents":[2147483647,0,0,1,1,2,2,3,3,4,4,5,5,6,6,7,7,8,8,9,9,10,10,11,11,13,13,14,14],"right_children":[2,4,6,8,10,12,14,16,18,20,22,24,-1,26,28,-1,-1,-1,-1,-1,-1,-1,-1,-1,-1,-1,-1,-1,-1],"split_conditions":[3.242534E-1,7.597105E-2,-1.2420151E0,-5.502904E-1,-5.7864434E-1,5.071777E0,-5.0897074E-1,9.904826E-1,9.904826E-1,-6.6386753E-1,-2.4363218E-1,1.1987972E0,3.7355E5,3.3561113E-1,2.6525843E0,-1.6764396E4,-2.9758425E3,-2.2853052E3,1.9963174E4,-2.2443412E4,-5.727025E3,-2.8359E4,-1.6910541E4,4.379688E4,9.304333E4,3.0450753E5,3.7119883E4,4.0602266E3,4.1666145E4],"split_indices":[3,5,0,3,0,3,5,0,0,3,3,3,0,3,3,0,0,0,0,0,0,0,0,0,0,0,0,0,0],"split_type":[0,0,0,0,0,0,0,0,0,0,0,0,0,0,0,0,0,0,0,0,0,0,0,0,0,0,0,0,0],"sum_hessian":[7.514E3,5.601E3,1.913E3,3.958E3,1.643E3,1.93E2,1.72E3,1.896E3,2.062E3,5.45E2,1.098E3,1.91E2,2E0,3.95E2,1.325E3,1.222E3,6.74E2,1.326E3,7.36E2,1.61E2,3.84E2,5.3E2,5.68E2,9.9E1,9.2E1,1E1,3.85E2,1.2E3,1.25E2],"tree_param":{"num_deleted":"0","num_feature":"15","num_nodes":"29","size_leaf_vector":"1"}},{"base_weights":[4.3129724E2,-1.3822187E4,1.9831395E5,-3.2971145E4,4.9261754E4,1.24836234E5,4.2307344E5,-5.1084152E4,2.1554406E4,2.8114167E3,1.453877E5,2.5537827E5,3.1617398E4,5.1163072E5,1.8326688E5,4.4536953E3,-1.1840044E4,2.4270297E4,-2.3592448E2,1.610581E4,-8.706161E3,1.4900111E5,-8.1201143E3,2.961325E4,1.101587E5,2.117544E3,2.3712055E5,7.3563016E4,5.765868E5,1.5178125E3,5.0646887E4],"categories":[],"categories_nodes":[],"categories_segments":[],"categories_sizes":[],"default_left":[0,0,0,0,0,0,0,0,0,0,0,0,0,0,0,0,0,0,0,0,0,0,0,0,0,0,0,0,0,0,0],"id":4,"left_children":[1,3,5,7,9,11,13,15,17,19,21,23,25,27,29,-1,-1,-1,-1,-1,-1,-1,-1,-1,-1,-1,-1,-1,-1,-1,-1],"loss_changes":[2.1198927E13,8.4708546E12,8.2871667E12,5.313519E12,7.291073E12,4.640475E12,2.5395756E12,2.4052803E12,3.044859E12,3.972477E12,5.9359887E13,4.959001E12,5.4234663E12,2.9632363E13,4.282893E11,0E0,0E0,0E0,0E0,0E0,0E0,0E0,0E0,0E0,0E0,0E0,0E0,0E0,0E0,0E0,0E0],"parents":[2147483647,0,0,1,1,2,2,3,3,4,4,5,5,6,6,7,7,8,8,9,9,10,10,11,11,12,12,13,13,14,14],"right_children":[2,4,6,8,10,12,14,16,18,20,22,24,26,28,30,-1,-1,-1,-1,-1,-1,-1,-1,-1,-1,-1,-1,-1,-1,-1,-1],"split_conditions":[1.4145938E0,8.032187E-1,8.032187E-1,2.3339173E-1,9.617791E-1,-6.519978E-1,9.908016E-1,-9.605047E-1,-1.0130246E0,-1.0123868E0,9.908016E-1,3.0841775E0,1.323615E0,8.2464E-1,1.140379E0,4.4536953E3,-1.1840044E4,2.4270297E4,-2.3592448E2,1.610581E4,-8.706161E3,1.4900111E5,-8.1201143E3,2.961325E4,1.101587E5,2.117544E3,2.3712055E5,7.3563016E4,5.765868E5,1.5178125E3,5.0646887E4],"split_indices":[3,7,7,3,0,0,0,5,0,0,0,3,1,0,0,0,0,0,0,0,0,0,0,0,0,0,0,0,0,0,0],"split_type":[0,0,0,0,0,0,0,0,0,0,0,0,0,0,0,0,0,0,0,0,0,0,0,0,0,0,0,0,0,0,0],"sum_hessian":[7.514E3,7.01E3,5.04E2,5.378E3,1.632E3,3.81E2,1.23E2,4.037E3,1.341E3,1.101E3,5.31E2,1.58E2,2.23E2,8.9E1,3.4E1,4.02E2,3.635E3,2.48E2,1.093E3,4.11E2,6.9E2,1.25E2,4.06E2,1.17E2,4.1E1,2.2E2,3E0,8.5E1,4E0,1E1,2.4E1],"tree_param":{"num_deleted":"0","num_feature":"15","num_nodes":"31","size_leaf_vector":"1"}},{"base_weights":[5.108691E2,-2.0091893E4,9.8294836E4,-6.638255E4,-9.663493E2,2.2335903E5,5.705718E4,-1.2323348E5,-5.1888402E4,5.8642277E4,-2.865494E4,1.6856638E5,4.9420075E5,1.3393032E4,2.0533853E5,-3.4136418E4,-2.180651E4,-1.393475E4,-3.1975957E3,-1.3192719E2,3.4312875E4,4.4607275E3,-9.900681E3,8.0149664E4,2.6713332E4,1.3064334E4,1.1570499E5,-7.787286E3,1.708124E4,1.1156265E5,2.6975256E4],"categories":[],"categories_nodes":[],"categories_segments":[],"categories_sizes":[],"default_left":[0,0,0,0,0,0,0,0,0,0,0,0,0,0,0,0,0,0,0,0,0,0,0,0,0,0,0,0,0,0,0],"id":5,"left_children":[1,3,5,7,9,11,13,15,17,19,21,23,25,27,29,-1,-1,-1,-1,-1,-1,-1,-1,-1,-1,-1,-1,-1,-1,-1,-1],"loss_changes":[1.5141843E13,5.496089E12,6.7330753E12,1.489175E12,7.253885E12,4.724899E12,6.374711E12,2.2935346E11,9.234358E11,9.33503E12,3.1893907E12,2.1487026E12,1.915114E12,2.874854E12,5.4880643E12,0E0,0E0,0E0,0E0,0E0,0E0,0E0,0E0,0E0,0E0,0E0,0E0,0E0,0E0,0E0,0E0],"parents":[2147483647,0,0,1,1,2,2,3,3,4,4,5,5,6,6,7,7,8,8,9,9,10,10,11,11,12,12,13,13,14,14],"right_children":[2,4,6,8,10,12,14,16,18,20,22,24,26,28,30,-1,-1,-1,-1,-1,-1,-1,-1,-1,-1,-1,-1,-1,-1,-1,-1],"split_conditions":[5.9683853E-1,-6.6386753E-1,-1.0123868E0,-1.0045989E0,8.350521E-1,2.4367878E0,4.8192653E-1,-1.19768E0,9.904826E-1,9.617791E-1,-6.3286215E-1,8.350521E-1,-1.927044E0,9.617791E-1,6.270452E-1,-3.4136418E4,-2.180651E4,-1.393475E4,-3.1975957E3,-1.3192719E2,3.4312875E4,4.4607275E3,-9.900681E3,8.0149664E4,2.6713332E4,1.3064334E4,1.1570499E5,-7.787286E3,1.708124E4,1.1156265E5,2.6975256E4],"split_indices":[3,3,0,3,14,3,1,3,0,0,0,14,1,0,1,0,0,0,0,0,0,0,0,0,0,0,0,0,0,0,0],"split_type":[0,0,0,0,0,0,0,0,0,0,0,0,0,0,0,0,0,0,0,0,0,0,0,0,0,0,0,0,0,0,0],"sum_hessian":[7.514E3,6.207E3,1.307E3,1.814E3,4.393E3,3.23E2,9.84E2,3.67E2,1.447E3,1.393E3,3E3,2.7E2,5.3E1,7.61E2,2.23E2,8.2E1,2.85E2,9.67E2,4.8E2,9.14E2,4.79E2,8.71E2,2.129E3,3.4E1,2.36E2,9E0,4.4E1,4.41E2,3.2E2,3.6E1,1.87E2],"tree_param":{"num_deleted":"0","num_feature":"15","num_nodes":"31","size_leaf_vector":"1"}},{"base_weights":[4.5382623E2,-8.896282E3,1.4831839E5,-4.290674E4,1.5571573E4,9.2428195E4,3.2289572E5,-5.4510254E4,2.75368E4,1.07595984E5,-4.9893735E3,7.768731E4,9.00056E5,7.849441E5,2.6773828E5,-2.3135571E3,-1.37938E4,-7.6919165E3,1.1947051E4,3.6948074E4,-2.7629895E4,8.0621807E3,-5.0705645E3,4.888533E4,6.0592964E3,-3.60375E2,3.605029E5,1.9690396E4,3.923385E5,7.748968E4,2.6993682E4],"categories":[],"categories_nodes":[],"categories_segments":[],"categories_sizes":[],"default_left":[0,0,0,0,0,0,0,0,0,0,0,0,0,0,0,0,0,0,0,0,0,0,0,0,0,0,0,0,0,0,0],"id":6,"left_children":[1,3,5,7,9,11,13,15,17,19,21,23,25,27,29,-1,-1,-1,-1,-1,-1,-1,-1,-1,-1,-1,-1,-1,-1,-1,-1],"loss_changes":[1.0391181E13,5.8832275E12,4.3316066E12,2.4193495E12,7.7808895E12,3.9778265E12,2.542264E12,1.5762729E12,8.926647E11,1.4262888E13,3.1023655E12,2.639736E12,4.8865833E12,8.692981E12,1.5053084E12,0E0,0E0,0E0,0E0,0E0,0E0,0E0,0E0,0E0,0E0,0E0,0E0,0E0,0E0,0E0,0E0],"parents":[2147483647,0,0,1,1,2,2,3,3,4,4,5,5,6,6,7,7,8,8,9,9,10,10,11,11,12,12,13,13,14,14],"right_children":[2,4,6,8,10,12,14,16,18,20,22,24,26,28,30,-1,-1,-1,-1,-1,-1,-1,-1,-1,-1,-1,-1,-1,-1,-1,-1],"split_conditions":[1.528171E0,8.371206E-2,8.032187E-1,1.3526387E0,8.350521E-1,1.0914251E0,1.6303903E0,-1.0123868E0,-7.888024E-1,9.9367195E-1,-6.519978E-1,-1.0953081E0,2.1074142E0,-6.269853E-1,-6.711335E-1,-2.3135571E3,-1.37938E4,-7.6919165E3,1.1947051E4,3.6948074E4,-2.7629895E4,8.0621807E3,-5.0705645E3,4.888533E4,6.0592964E3,-3.60375E2,3.605029E5,1.9690396E4,3.923385E5,7.748968E4,2.6993682E4],"split_indices":[3,2,7,1,14,1,3,0,3,0,0,0,3,5,0,0,0,0,0,0,0,0,0,0,0,0,0,0,0,0,0],"split_type":[0,0,0,0,0,0,0,0,0,0,0,0,0,0,0,0,0,0,0,0,0,0,0,0,0,0,0,0,0,0,0],"sum_hessian":[7.514E3,7.068E3,4.46E2,2.957E3,4.111E3,3.39E2,1.07E2,2.539E3,4.18E2,7.5E2,3.361E3,3.34E2,5E0,1E1,9.7E1,6.4E2,1.899E3,1.37E2,2.81E2,5.71E2,1.79E2,1.042E3,2.319E3,7.3E1,2.61E2,3E0,2E0,7E0,3E0,5E1,4.7E1],"tree_param":{"num_deleted":"0","num_feature":"15","num_nodes":"31","size_leaf_vector":"1"}},{"base_weights":[4.8708923E2,-1.843152E4,5.585885E4,2.7105707E4,-3.300896E4,2.7031326E4,1.6088778E5,-9.434832E3,9.0300164E4,-5.394946E4,-7.9931636E3,1.849739E4,2.6963478E5,4.9608188E5,1.2351184E5,2.177852E3,-1.1102645E4,1.0863689E3,3.815566E4,-1.2141253E4,1.1374983E3,-2.0337274E3,1.03459E5,-2.0962012E3,1.6135874E4,2.8711012E5,3.8549883E4,5.45622E4,3.0831347E5,1.3815905E4,4.7731445E4],"categories":[],"categories_nodes":[],"categories_segments":[],"categories_sizes":[],"default_left":[0,0,0,0,0,0,0,0,0,0,0,0,0,0,0,0,0,0,0,0,0,0,0,0,0,0,0,0,0,0,0],"id":7,"left_children":[1,3,5,7,9,11,13,15,17,19,21,23,25,27,29,-1,-1,-1,-1,-1,-1,-1,-1,-1,-1,-1,-1,-1,-1,-1,-1],"loss_changes":[7.8734185E12,3.7195927E12,5.790715E12,3.1389995E12,2.2227604E12,3.1067666E12,5.100344E12,8.0786876E11,4.2456142E12,9.3117166E11,2.2164818E12,2.6190555E12,4.2950326E12,9.149928E12,2.3150723E12,0E0,0E0,0E0,0E0,0E0,0E0,0E0,0E0,0E0,0E0,0E0,0E0,0E0,0E0,0E0,0E0],"parents":[2147483647,0,0,1,1,2,2,3,3,4,4,5,5,6,6,7,7,8,8,9,9,10,10,11,11,12,12,13,13,14,14],"right_children":[2,4,6,8,10,12,14,16,18,20,22,24,26,28,30,-1,-1,-1,-1,-1,-1,-1,-1,-1,-1,-1,-1,-1,-1,-1,-1],"split_conditions":[3.242534E-1,-7.398688E-1,8.032187E-1,8.371206E-2,-2.8906304E-1,4.049583E0,8.350521E-1,9.908016E-1,8.948042E-1,1.3526387E0,4.079979E0,9.617791E-1,1.8436179E-1,7.35659E-1,1.3464475E0,2.177852E3,-1.1102645E4,1.0863689E3,3.815566E4,-1.2141253E4,1.1374983E3,-2.0337274E3,1.03459E5,-2.0962012E3,1.6135874E4,2.8711012E5,3.8549883E4,5.45622E4,3.0831347E5,1.3815905E4,4.7731445E4],"split_indices":[3,5,7,2,3,3,14,0,0,1,2,0,6,0,3,0,0,0,0,0,0,0,0,0,0,0,0,0,0,0,0],"split_type":[0,0,0,0,0,0,0,0,0,0,0,0,0,0,0,0,0,0,0,0,0,0,0,0,0,0,0,0,0,0,0],"sum_hessian":[7.514E3,5.601E3,1.913E3,1.358E3,4.243E3,1.502E3,4.11E2,8.61E2,4.97E2,2.309E3,1.934E3,1.452E3,5E1,4E1,3.71E2,5.98E2,2.63E2,2.7E2,2.27E2,2.074E3,2.35E2,1.927E3,7E0,9.91E2,4.61E2,2E0,4.8E1,3.4E1,6E0,2.53E2,1.18E2],"tree_param":{"num_deleted":"0","num_feature":"15","num_nodes":"31","size_leaf_vector":"1"}},{"base_weights":[5.0741318E2,-4.6853906E3,1.4148917E5,-2.4180518E4,3.2357227E4,5.6353675E5,1.1234057E5,6.2674087E3,-7.586429E4,4.838748E5,-3.1071762E4,1.02077275E6,1.4139427E5,2.399752E5,1.8904871E4,-4.865904E3,9.234118E3,-1.7880598E4,-7.3150156E3,7.261465E4,2.4008653E5,3.7342305E4,-6.815316E3,8.745029E4,3.695116E5,-4.8942156E4,6.8365305E4,5.7877465E4,-2.1080688E4,-1.3295461E4,4.003337E4],"categories":[],"categories_nodes":[],"categories_segments":[],"categories_sizes":[],"default_left":[0,0,0,0,0,0,0,0,0,0,0,0,0,0,0,0,0,0,0,0,0,0,0,0,0,0,0,0,0,0,0],"id":8,"left_children":[1,3,5,7,9,11,13,15,17,19,21,23,25,27,29,-1,-1,-1,-1,-1,-1,-1,-1,-1,-1,-1,-1,-1,-1,-1,-1],"loss_changes":[5.5023244E12,5.2356516E12,3.2213518E12,7.475378E12,7.1613295E13,3.136987E12,2.988797E12,3.651658E12,9.3344865E11,2.6225054E13,1.4414599E12,3.0517263E12,8.575278E11,1.8394865E12,2.2728815E12,0E0,0E0,0E0,0E0,0E0,0E0,0E0,0E0,0E0,0E0,0E0,0E0,0E0,0E0,0E0,0E0],"parents":[2147483647,0,0,1,1,2,2,3,3,4,4,5,5,6,6,7,7,8,8,9,9,10,10,11,11,12,12,13,13,14,14],"right_children":[2,4,6,8,10,12,14,16,18,20,22,24,26,28,30,-1,-1,-1,-1,-1,-1,-1,-1,-1,-1,-1,-1,-1,-1,-1,-1],"split_conditions":[2.1074142E0,8.948042E-1,-9.605047E-1,-5.0848013E-1,9.908016E-1,1.6732469E0,-6.519978E-1,-1.18697345E-1,4.65704E-2,3.242534E-1,9.9367195E-1,-4.0961236E-1,-1.1335795E0,7.48141E-1,1.1722717E0,-4.865904E3,9.234118E3,-1.7880598E4,-7.3150156E3,7.261465E4,2.4008653E5,3.7342305E4,-6.815316E3,8.745029E4,3.695116E5,-4.8942156E4,6.8365305E4,5.7877465E4,-2.1080688E4,-1.3295461E4,4.003337E4],"split_indices":[3,0,5,0,0,7,0,3,1,3,0,0,0,5,0,0,0,0,0,0,0,0,0,0,0,0,0,0,0,0,0],"split_type":[0,0,0,0,0,0,0,0,0,0,0,0,0,0,0,0,0,0,0,0,0,0,0,0,0,0,0,0,0,0,0],"sum_hessian":[7.514E3,7.248E3,2.66E2,4.749E3,2.499E3,1.6E1,2.5E2,2.989E3,1.76E3,3.07E2,2.192E3,7E0,9E0,1.05E2,1.45E2,1.692E3,1.297E3,1.308E3,4.52E2,2.64E2,4.3E1,2.9E1,2.163E3,5E0,2E0,3E0,6E0,9.2E1,1.3E1,9.9E1,4.6E1],"tree_param":{"num_deleted":"0","num_feature":"15","num_nodes":"31","size_leaf_vector":"1"}},{"base_weights":[5.2067523E2,-1.2670935E4,4.379126E4,-1.5706844E4,1.2103179E5,-7.7264966E3,8.356806E4,-4.8415016E4,-4.134971E3,1.1868799E6,8.59564E4,-6.9041375E4,1.3768904E4,2.3024116E5,3.715989E4,-1.0803881E4,3.1779076E4,-6.5871104E3,2.62541E3,3.3357725E5,-2.5613912E4,6.339509E3,5.45585E4,-8.526038E3,-2.155903E4,4.3191094E3,-1.9192096E4,1.2464535E4,9.473727E4,-1.516514E2,2.4602498E4],"categories":[],"categories_nodes":[],"categories_segments":[],"categories_sizes":[],"default_left":[0,0,0,0,0,0,0,0,0,0,0,0,0,0,0,0,0,0,0,0,0,0,0,0,0,0,0,0,0,0,0],"id":9,"left_children":[1,3,5,7,9,11,13,15,17,19,21,23,25,27,29,-1,-1,-1,-1,-1,-1,-1,-1,-1,-1,-1,-1,-1,-1,-1,-1],"loss_changes":[4.290182E12,2.3399388E12,3.5990617E12,2.131861E12,4.6832655E12,1.01052934E12,6.737013E12,1.7188232E12,2.0695966E12,2.7436022E12,1.2585423E12,1.9908769E11,4.8987793E11,9.69967E12,2.454643E12,0E0,0E0,0E0,0E0,0E0,0E0,0E0,0E0,0E0,0E0,0E0,0E0,0E0,0E0,0E0,0E0],"parents":[2147483647,0,0,1,1,2,2,3,3,4,4,5,5,6,6,7,7,8,8,9,9,10,10,11,11,12,12,13,13,14,14],"right_children":[2,4,6,8,10,12,14,16,18,20,22,24,26,28,30,-1,-1,-1,-1,-1,-1,-1,-1,-1,-1,-1,-1,-1,-1,-1,-1],"split_conditions":[8.032187E-1,2.8002346E0,8.371206E-2,-6.680945E-2,-1.0631261E0,-8.910218E-1,8.350521E-1,1.4720643E0,-4.7078642E-1,3.2807255E0,5.071777E0,-1.7330613E-2,1.2456253E0,9.617791E-1,6.877002E-1,-1.0803881E4,3.1779076E4,-6.5871104E3,2.62541E3,3.3357725E5,-2.5613912E4,6.339509E3,5.45585E4,-8.526038E3,-2.155903E4,4.3191094E3,-1.9192096E4,1.2464535E4,9.473727E4,-1.516514E2,2.4602498E4],"split_indices":[7,3,2,7,5,3,14,0,3,2,3,0,0,0,3,0,0,0,0,0,0,0,0,0,0,0,0,0,0,0,0],"split_type":[0,0,0,0,0,0,0,0,0,0,0,0,0,0,0,0,0,0,0,0,0,0,0,0,0,0,0,0,0,0,0],"sum_hessian":[7.514E3,5.759E3,1.755E3,5.632E3,1.27E2,7.65E2,9.9E2,1.471E3,4.161E3,3E0,1.24E2,1.98E2,5.67E2,2.37E2,7.53E2,1.433E3,3.8E1,1.559E3,2.602E3,2E0,1E0,9.7E1,2.7E1,1.19E2,7.9E1,5.3E2,3.7E1,1.41E2,9.6E1,5.23E2,2.3E2],"tree_param":{"num_deleted":"0","num_feature":"15","num_nodes":"31","size_leaf_vector":"1"}},{"base_weights":[4.7942477E2,-1.4556124E4,3.0556332E4,4.175073E4,-3.9084387E4,5.1784428E5,-2.1305457E4,7.9379043E3,9.878838E4,-1.7372295E4,-6.563952E4,2.1469566E5,1.1030386E6,-4.569915E4,2.1774E3,-4.5204385E3,5.767919E3,-1.0726768E4,2.4222469E4,-4.3359614E3,1.9046344E4,-1.0859946E4,-2.0376928E4,2.6244705E3,8.030787E4,1.8326498E5,4.2316834E5,2.831785E4,-1.002819E4,1.0530683E4,-5.92981E3],"categories":[],"categories_nodes":[],"categories_segments":[],"categories_sizes":[],"default_left":[0,0,0,0,0,0,0,0,0,0,0,0,0,0,0,0,0,0,0,0,0,0,0,0,0,0,0,0,0,0,0],"id":10,"left_children":[1,3,5,7,9,11,13,15,17,19,21,23,25,27,29,-1,-1,-1,-1,-1,-1,-1,-1,-1,-1,-1,-1,-1,-1,-1,-1],"loss_changes":[3.3988993E12,6.922371E12,6.3316454E13,2.9326233E12,2.0116569E12,4.2516787E13,1.2975677E12,6.1090444E11,1.932405E12,9.343176E11,6.3975614E11,6.020761E12,1.356776E13,9.313384E11,1.8570366E12,0E0,0E0,0E0,0E0,0E0,0E0,0E0,0E0,0E0,0E0,0E0,0E0,0E0,0E0,0E0,0E0],"parents":[2147483647,0,0,1,1,2,2,3,3,4,4,5,5,6,6,7,7,8,8,9,9,10,10,11,11,12,12,13,13,14,14],"right_children":[2,4,6,8,10,12,14,16,18,20,22,24,26,28,30,-1,-1,-1,-1,-1,-1,-1,-1,-1,-1,-1,-1,-1,-1,-1,-1],"split_conditions":[9.904826E-1,-1.0130246E0,9.908016E-1,6.237486E-3,-3.7453026E-1,-3.6856702E-1,7.87909E-4,-7.206561E-1,-9.368376E-1,2.1074142E0,3.242534E-1,-7.888024E-1,9.262122E-1,9.9367195E-1,4.136099E-3,-4.5204385E3,5.767919E3,-1.0726768E4,2.4222469E4,-4.3359614E3,1.9046344E4,-1.0859946E4,-2.0376928E4,2.6244705E3,8.030787E4,1.8326498E5,4.2316834E5,2.831785E4,-1.002819E4,1.0530683E4,-5.92981E3],"split_indices":[0,0,0,3,0,3,5,3,7,3,3,3,3,0,5,0,0,0,0,0,0,0,0,0,0,0,0,0,0,0,0],"split_type":[0,0,0,0,0,0,0,0,0,0,0,0,0,0,0,0,0,0,0,0,0,0,0,0,0,0,0,0,0,0,0],"sum_hessian":[7.514E3,5.01E3,2.504E3,1.52E3,3.49E3,2.4E2,2.264E3,9.55E2,5.65E2,1.921E3,1.569E3,1.59E2,8.1E1,1.11E3,1.154E3,3.88E2,5.67E2,7.2E1,4.93E2,1.851E3,7E1,1.197E3,3.72E2,7.7E1,8.2E1,7E1,1.1E1,2.5E1,1.085E3,4.46E2,7.08E2],"tree_param":{"num_deleted":"0","num_feature":"15","num_nodes":"31","size_leaf_vector":"1"}},{"base_weights":[4.780812E2,-1.1934548E4,2.6728047E4,4.0436434E4,-1.87377E4,1.30914516E5,1.6320957E4,7.153007E4,-2.8598322E4,-1.9198748E4,1.3627761E5,1.1618048E5,2.3060762E5,-9.186212E3,6.2789906E4,3.373231E3,9.012626E4,-6.551512E3,7.2838305E4,7.9541284E3,-4.512471E3,9.597524E3,3.909725E4,7.3991675E3,-1.0676183E4,2.3469936E5,1.7778378E3],"categories":[],"categories_nodes":[],"categories_segments":[],"categories_sizes":[],"default_left":[0,0,0,0,0,0,0,0,0,0,0,0,0,0,0,0,0,0,0,0,0,0,0,0,0,0,0],"id":11,"left_children":[1,3,5,7,9,11,13,15,17,19,-1,21,-1,23,25,-1,-1,-1,-1,-1,-1,-1,-1,-1,-1,-1,-1],"loss_changes":[2.4489398E12,1.8188937E12,2.6142263E12,1.2620658E12,1.4711367E12,3.1641806E12,2.6022914E12,8.385279E12,3.108983E11,8.96447E11,0E0,1.1641742E12,0E0,2.8961153E12,4.6566795E13,0E0,0E0,0E0,0E0,0E0,0E0,0E0,0E0,0E0,0E0,0E0,0E0],"parents":[2147483647,0,0,1,1,2,2,3,3,4,4,5,5,6,6,7,7,8,8,9,9,11,11,13,13,14,14],"right_children":[2,4,6,8,10,12,14,16,18,20,-1,22,-1,24,26,-1,-1,-1,-1,-1,-1,-1,-1,-1,-1,-1,-1],"split_conditions":[1.5388775E-1,-1.0220776E0,-1.2420151E0,9.9367195E-1,7.2769923E0,5.071777E0,9.904826E-1,9.617791E-1,1.6822188E0,-1.3153685E0,1.3627761E5,-1.2898543E0,2.3060762E5,-6.3286215E-1,9.9367195E-1,3.373231E3,9.012626E4,-6.551512E3,7.2838305E4,7.9541284E3,-4.512471E3,9.597524E3,3.909725E4,7.3991675E3,-1.0676183E4,2.3469936E5,1.7778378E3],"split_indices":[3,5,0,0,2,3,0,0,2,0,0,0,0,0,0,0,0,0,0,0,0,0,0,0,0,0,0],"split_type":[0,0,0,0,0,0,0,0,0,0,0,0,0,0,0,0,0,0,0,0,0,0,0,0,0,0,0],"sum_hessian":[7.514E3,5.102E3,2.412E3,5.86E2,4.516E3,2.18E2,2.194E3,4.04E2,1.82E2,4.514E3,2E0,2.16E2,2E0,1.417E3,7.77E2,3.54E2,5E1,1.81E2,1E0,2.43E2,4.271E3,1.17E2,9.9E1,6.93E2,7.24E2,3.5E1,7.42E2],"tree_param":{"num_deleted":"0","num_feature":"15","num_nodes":"27","size_leaf_vector":"1"}},{"base_weights":[4.9051752E2,-1.0185068E4,2.6319578E4,2.3754396E4,-1.9001129E4,4.9197816E4,-1.8731426E4,1.5029476E4,2.0615366E5,-3.822083E4,1.1615754E4,1.59961875E4,3.692223E5,-4.4025438E4,1.7773537E4,-7.78731E3,5.4979795E3,1.9736984E5,3.0613062E4,-5.4451313E3,-1.3327358E4,6.691383E4,-2.9038953E3,2.412451E3,5.4298438E4,5.7962465E4,2.9328156E5,-4.3888916E3,-2.6073217E4,1.889043E3,3.552057E4],"categories":[],"categories_nodes":[],"categories_segments":[],"categories_sizes":[],"default_left":[0,0,0,0,0,0,0,0,0,0,0,0,0,0,0,0,0,0,0,0,0,0,0,0,0,0,0,0,0,0,0],"id":12,"left_children":[1,3,5,7,9,11,13,15,17,19,21,23,25,27,29,-1,-1,-1,-1,-1,-1,-1,-1,-1,-1,-1,-1,-1,-1,-1,-1],"loss_changes":[2.0724567E12,1.591663E12,2.2663728E12,1.7426886E12,2.4848687E12,1.548583E13,6.8499E11,7.057869E11,1.9212391E12,8.0865106E11,1.3754367E13,1.3254732E12,1.1511485E13,8.321799E11,4.0297988E11,0E0,0E0,0E0,0E0,0E0,0E0,0E0,0E0,0E0,0E0,0E0,0E0,0E0,0E0,0E0,0E0],"parents":[2147483647,0,0,1,1,2,2,3,3,4,4,5,5,6,6,7,7,8,8,9,9,10,10,11,11,12,12,13,13,14,14],"right_children":[2,4,6,8,10,12,14,16,18,20,22,24,26,28,30,-1,-1,-1,-1,-1,-1,-1,-1,-1,-1,-1,-1,-1,-1,-1,-1],"split_conditions":[2.7876034E-1,-1.0130246E0,1.0128076E0,2.2323492E0,9.904826E-1,9.904826E-1,8.350521E-1,-8.115178E-1,-1.0631261E0,5.9212167E-2,9.908016E-1,3.0841775E0,9.262122E-1,8.371206E-2,2.4367878E0,-7.78731E3,5.4979795E3,1.9736984E5,3.0613062E4,-5.4451313E3,-1.3327358E4,6.691383E4,-2.9038953E3,2.412451E3,5.4298438E4,5.7962465E4,2.9328156E5,-4.3888916E3,-2.6073217E4,1.889043E3,3.552057E4],"split_indices":[1,0,0,3,0,0,14,3,5,0,0,3,3,2,3,0,0,0,0,0,0,0,0,0,0,0,0,0,0,0,0],"split_type":[0,0,0,0,0,0,0,0,0,0,0,0,0,0,0,0,0,0,0,0,0,0,0,0,0,0,0,0,0,0,0],"sum_hessian":[7.514E3,5.317E3,2.197E3,1.096E3,4.221E3,1.457E3,7.4E2,1.047E3,4.9E1,2.593E3,1.628E3,1.321E3,1.36E2,4.37E2,3.03E2,1.96E2,8.51E2,2E0,4.7E1,1.871E3,7.22E2,1.21E2,1.507E3,1.302E3,1.9E1,1.28E2,8E0,3.49E2,8.8E1,2.89E2,1.4E1],"tree_param":{"num_deleted":"0","num_feature":"15","num_nodes":"31","size_leaf_vector":"1"}},{"base_weights":[4.8367798E2,-1.9614639E4,1.4217044E4,-5.9656023E4,-1.4117305E4,-1.4541039E3,4.9251062E4,-5.4668035E4,-1.8187608E5,-1.0188772E4,-5.7853887E4,7.514762E4,-8.885098E3,7.177307E4,6.0512524E3,-2.7630094E4,-1.0419449E4,-3.8410445E4,-4.958613E3,-3.9376099E3,3.34883E3,-9.178069E3,-2.1549748E4,1.2973156E4,1.957782E5,-4.7997964E3,3.7797336E3,6.809743E3,1.5872948E5,2.4955994E2,9.127312E4],"categories":[],"categories_nodes":[],"categories_segments":[],"categories_sizes":[],"default_left":[0,0,0,0,0,0,0,0,0,0,0,0,0,0,0,0,0,0,0,0,0,0,0,0,0,0,0,0,0,0,0],"id":13,"left_children":[1,3,5,7,9,11,13,15,17,19,21,23,25,27,29,-1,-1,-1,-1,-1,-1,-1,-1,-1,-1,-1,-1,-1,-1,-1,-1],"loss_changes":[2.0745506E12,6.707467E11,2.4514606E12,2.1440194E11,4.6057688E11,1.7573018E12,1.342231E12,6.899132E10,1.7617486E10,6.307275E11,1.2697449E11,2.4732584E12,1.1821103E12,2.467262E13,1.02472267E12,0E0,0E0,0E0,0E0,0E0,0E0,0E0,0E0,0E0,0E0,0E0,0E0,0E0,0E0,0E0,0E0],"parents":[2147483647,0,0,1,1,2,2,3,3,4,4,5,5,6,6,7,7,8,8,9,9,10,10,11,11,12,12,13,13,14,14],"right_children":[2,4,6,8,10,12,14,16,18,20,22,24,26,28,30,-1,-1,-1,-1,-1,-1,-1,-1,-1,-1,-1,-1,-1,-1,-1,-1],"split_conditions":[-3.6856702E-1,-1.0045989E0,4.65704E-2,8.371206E-2,1.2456253E0,-1.2420151E0,9.908016E-1,1.8436179E-1,1.140379E0,9.904826E-1,8.371206E-2,5.071777E0,9.904826E-1,9.904826E-1,4.049583E0,-2.7630094E4,-1.0419449E4,-3.8410445E4,-4.958613E3,-3.9376099E3,3.34883E3,-9.178069E3,-2.1549748E4,1.2973156E4,1.957782E5,-4.7997964E3,3.7797336E3,6.809743E3,1.5872948E5,2.4955994E2,9.127312E4],"split_indices":[3,3,1,2,0,0,0,6,0,0,2,3,0,0,3,0,0,0,0,0,0,0,0,0,0,0,0,0,0,0,0],"split_type":[0,0,0,0,0,0,0,0,0,0,0,0,0,0,0,0,0,0,0,0,0,0,0,0,0,0,0,0,0,0,0],"sum_hessian":[7.514E3,3.05E3,4.464E3,3.67E2,2.683E3,3.085E3,1.379E3,3.54E2,1.3E1,2.463E3,2.2E2,2.72E2,2.813E3,9.06E2,4.73E2,9E0,3.45E2,1.2E1,1E0,1.821E3,6.42E2,1.79E2,4.1E1,2.7E2,2E0,1.822E3,9.91E2,8.62E2,4.4E1,4.69E2,4E0],"tree_param":{"num_deleted":"0","num_feature":"15","num_nodes":"31","size_leaf_vector":"1"}},{"base_weights":[4.3378958E2,-1.7642447E4,1.0462759E4,-2.352411E4,9.184255E3,7.229073E4,4.71643E3,-8.408391E4,-2.122882E4,2.4231598E4,-2.4382389E4,6.6421445E4,1.6967444E5,-3.1788234E4,1.6114619E4,-1.4022971E4,-3.3066777E4,3.1683384E3,-4.8035215E3,1.0697837E3,3.6077926E4,-3.080572E3,-1.874559E4,4.2155303E3,2.7371201E4,-7.017686E3,7.098664E4,-2.652176E2,9.040382E3],"categories":[],"categories_nodes":[],"categories_segments":[],"categories_sizes":[],"default_left":[0,0,0,0,0,0,0,0,0,0,0,0,0,0,0,0,0,0,0,0,0,0,0,0,0,0,0,0,0],"id":14,"left_children":[1,3,5,7,9,11,13,15,17,19,21,23,-1,25,27,-1,-1,-1,-1,-1,-1,-1,-1,-1,-1,-1,-1,-1,-1],"loss_changes":[1.3625491E12,4.2339703E11,1.7171011E12,3.0401993E11,2.445487E11,1.8157706E12,1.8412815E12,7.920648E10,2.1965314E11,9.8389485E11,9.195989E10,1.3033671E12,0E0,1.356352E12,1.7106856E12,0E0,0E0,0E0,0E0,0E0,0E0,0E0,0E0,0E0,0E0,0E0,0E0,0E0,0E0],"parents":[2147483647,0,0,1,1,2,2,3,3,4,4,5,5,6,6,7,7,8,8,9,9,10,10,11,11,13,13,14,14],"right_children":[2,4,6,8,10,12,14,16,18,20,22,24,-1,26,28,-1,-1,-1,-1,-1,-1,-1,-1,-1,-1,-1,-1,-1,-1],"split_conditions":[-4.7078642E-1,1.20752E0,-1.2420151E0,-1.19768E0,1.0383219E0,5.071777E0,-4.468332E-1,8.371206E-2,-1.3153685E0,9.617791E-1,8.371206E-2,-1.2898543E0,1.6967444E5,5.071777E0,9.904826E-1,-1.4022971E4,-3.3066777E4,3.1683384E3,-4.8035215E3,1.0697837E3,3.6077926E4,-3.080572E3,-1.874559E4,4.2155303E3,2.7371201E4,-7.017686E3,7.098664E4,-2.652176E2,9.040382E3],"split_indices":[3,1,0,3,0,3,1,2,0,0,2,0,0,3,0,0,0,0,0,0,0,0,0,0,0,0,0,0,0],"split_type":[0,0,0,0,0,0,0,0,0,0,0,0,0,0,0,0,0,0,0,0,0,0,0,0,0,0,0,0,0],"sum_hessian":[7.514E3,2.681E3,4.833E3,2.199E3,4.82E2,4.1E2,4.423E3,7.9E1,2.12E3,3.33E2,1.49E2,4.08E2,2E0,1.052E3,3.371E3,6.9E1,1E1,1.48E2,1.972E3,2.98E2,3.5E1,1.33E2,1.6E1,2.49E2,1.59E2,1.044E3,8E0,2.108E3,1.263E3],"tree_param":{"num_deleted":"0","num_feature":"15","num_nodes":"29","size_leaf_vector":"1"}},{"base_weights":[3.790482E2,-5.2612417E3,2.8065834E4,-2.4274332E4,8.5625214E2,-2.9282249E3,5.4212895E4,-2.9157488E4,1.4826048E5,1.053585E1,2.2201047E5,1.8392084E4,-2.7039055E4,1.84192E5,2.1972186E4,-7.362443E3,4.9166436E3,1.1447754E5,-4.3327792E2,-1.5274506E3,3.4467798E3,1.4705117E5,2.2380264E4,2.191278E3,4.0426426E4,1.134071E4,-7.360247E3,1.968775E4,7.146445E4,8.790322E4,2.8541028E3],"categories":[],"categories_nodes":[],"categories_segments":[],"categories_sizes":[],"default_left":[0,0,0,0,0,0,0,0,0,0,0,0,0,0,0,0,0,0,0,0,0,0,0,0,0,0,0,0,0,0,0],"id":15,"left_children":[1,3,5,7,9,11,13,15,17,19,21,23,25,27,29,-1,-1,-1,-1,-1,-1,-1,-1,-1,-1,-1,-1,-1,-1,-1,-1],"loss_changes":[1.1737014E12,7.262758E11,1.03099204E12,1.284945E12,8.83732E11,3.0018866E11,2.88748E12,6.09322E11,2.6808455E12,6.202724E11,9.3495833E11,4.213181E11,2.260846E11,1.998794E12,1.7752735E12,0E0,0E0,0E0,0E0,0E0,0E0,0E0,0E0,0E0,0E0,0E0,0E0,0E0,0E0,0E0,0E0],"parents":[2147483647,0,0,1,1,2,2,3,3,4,4,5,5,6,6,7,7,8,8,9,9,10,10,11,11,12,12,13,13,14,14],"right_children":[2,4,6,8,10,12,14,16,18,20,22,24,26,28,30,-1,-1,-1,-1,-1,-1,-1,-1,-1,-1,-1,-1,-1,-1,-1,-1],"split_conditions":[1.6732469E0,-6.680945E-2,-2.8906304E-1,1.4720643E0,5.071777E0,-7.2447556E-1,8.350521E-1,1.6822188E0,1.4816321E0,1.5388775E-1,-1.2770972E0,-7.55262E-1,-1.3153685E0,9.617791E-1,-1.3185579E0,-7.362443E3,4.9166436E3,1.1447754E5,-4.3327792E2,-1.5274506E3,3.4467798E3,1.4705117E5,2.2380264E4,2.191278E3,4.0426426E4,1.134071E4,-7.360247E3,1.968775E4,7.146445E4,8.790322E4,2.8541028E3],"split_indices":[7,7,3,0,3,5,14,2,0,3,0,5,0,0,0,0,0,0,0,0,0,0,0,0,0,0,0,0,0,0,0],"split_type":[0,0,0,0,0,0,0,0,0,0,0,0,0,0,0,0,0,0,0,0,0,0,0,0,0,0,0,0,0,0,0],"sum_hessian":[7.514E3,6.243E3,1.271E3,1.519E3,4.724E3,5.82E2,6.89E2,1.478E3,4.1E1,4.707E3,1.7E1,3.09E2,2.73E2,1.36E2,5.53E2,1.294E3,1.84E2,1E1,3.1E1,3.26E3,1.447E3,2E0,1.5E1,2.98E2,1.1E1,2.8E1,2.45E2,9.2E1,4.4E1,9E0,5.44E2],"tree_param":{"num_deleted":"0","num_feature":"15","num_nodes":"31","size_leaf_vector":"1"}},{"base_weights":[3.7129382E2,7.700641E3,-1.6936098E4,-5.0164224E3,2.4369139E5,-3.644503E4,1.4858314E3,1.1908477E4,-2.8177807E4,1.1272705E4,4.9764306E5,-2.046064E4,-6.264699E4,4.1542242E4,-2.3821031E4,1.768826E3,3.460403E4,-1.2074495E4,-4.651056E3,-5.974931E3,1.0080324E5,8.403421E4,2.4359611E5,-7.941407E3,6.9731875E3,-1.4951375E4,-3.96894E3,-1.8750009E3,1.4587656E4,-7.302337E3,1.6687295E4],"categories":[],"categories_nodes":[],"categories_segments":[],"categories_sizes":[],"default_left":[0,0,0,0,0,0,0,0,0,0,0,0,0,0,0,0,0,0,0,0,0,0,0,0,0,0,0,0,0,0,0],"id":16,"left_children":[1,3,5,7,9,11,13,15,17,19,21,23,25,27,29,-1,-1,-1,-1,-1,-1,-1,-1,-1,-1,-1,-1,-1,-1,-1,-1],"loss_changes":[9.534223E11,1.584708E13,8.0365525E11,1.964668E12,1.5930629E13,4.5355893E11,1.1677607E12,1.4282312E12,3.3393803E11,2.894121E12,6.6872075E12,7.212144E11,2.115506E11,7.1365945E11,9.640309E11,0E0,0E0,0E0,0E0,0E0,0E0,0E0,0E0,0E0,0E0,0E0,0E0,0E0,0E0,0E0,0E0],"parents":[2147483647,0,0,1,1,2,2,3,3,4,4,5,5,6,6,7,7,8,8,9,9,10,10,11,11,12,12,13,13,14,14],"right_children":[2,4,6,8,10,12,14,16,18,20,22,24,26,28,30,-1,-1,-1,-1,-1,-1,-1,-1,-1,-1,-1,-1,-1,-1,-1,-1],"split_conditions":[9.9367195E-1,9.904826E-1,7.87909E-4,-6.519978E-1,-5.6164813E-1,1.2456253E0,4.136099E-3,3.0841775E0,-9.368376E-1,1.4106863E0,9.262122E-1,1.2137324E0,1.4529285E0,8.350521E-1,1.4529285E0,1.768826E3,3.460403E4,-1.2074495E4,-4.651056E3,-5.974931E3,1.0080324E5,8.403421E4,2.4359611E5,-7.941407E3,6.9731875E3,-1.4951375E4,-3.96894E3,-1.8750009E3,1.4587656E4,-7.302337E3,1.6687295E4],"split_indices":[0,0,5,0,3,0,5,3,7,1,3,0,0,14,0,0,0,0,0,0,0,0,0,0,0,0,0,0,0,0,0],"split_type":[0,0,0,0,0,0,0,0,0,0,0,0,0,0,0,0,0,0,0,0,0,0,0,0,0,0,0,0,0,0,0],"sum_hessian":[7.514E3,5.279E3,2.235E3,5.01E3,2.69E2,1.085E3,1.15E3,2.895E3,2.115E3,1.41E2,1.28E2,6.75E2,4.1E2,4.45E2,7.05E2,2.842E3,5.3E1,2.79E2,1.836E3,1.31E2,1E1,1.17E2,1.1E1,5.01E2,1.74E2,3.19E2,9.1E1,1.7E2,2.75E2,6.31E2,7.4E1],"tree_param":{"num_deleted":"0","num_feature":"15","num_nodes":"31","size_leaf_vector":"1"}},{"base_weights":[3.5616476E2,4.5247695E4,-1.6793004E3,1.080453E4,1.4124252E5,-6.2091668E4,5.0588455E2,2.2038697E4,-1.0202826E5,1.04774914E5,7.1106275E5,-5.470979E4,-3.115872E5,7.102039E4,-2.9022334E3,1.5040441E3,4.1335855E4,1.578939E4,-3.8349297E4,1.6775232E4,7.110261E4,2.1973014E4,1.6677917E5,-8.346687E3,-1.9355365E4,-8.0028016E4,2.1973014E4,8.0521846E3,2.1858904E4,-6.4615815E3,1.2928929E2],"categories":[],"categories_nodes":[],"categories_segments":[],"categories_sizes":[],"default_left":[0,0,0,0,0,0,0,0,0,0,0,0,0,0,0,0,0,0,0,0,0,0,0,0,0,0,0,0,0,0,0],"id":17,"left_children":[1,3,5,7,9,11,13,15,17,19,21,23,25,27,29,-1,-1,-1,-1,-1,-1,-1,-1,-1,-1,-1,-1,-1,-1,-1,-1],"loss_changes":[6.867602E11,1.07634904E12,9.491991E11,3.0773592E11,1.7125768E12,4.4523127E11,1.6680392E12,5.881997E11,3.7234685E11,3.9987013E11,2.7761862E11,1.2970105E11,3.05207E11,3.7233295E11,6.9093104E11,0E0,0E0,0E0,0E0,0E0,0E0,0E0,0E0,0E0,0E0,0E0,0E0,0E0,0E0,0E0,0E0],"parents":[2147483647,0,0,1,1,2,2,3,3,4,4,5,5,6,6,7,7,8,8,9,9,10,10,11,11,12,12,13,13,14,14],"right_children":[2,4,6,8,10,12,14,16,18,20,22,24,26,28,30,-1,-1,-1,-1,-1,-1,-1,-1,-1,-1,-1,-1,-1,-1,-1,-1],"split_conditions":[-1.3185579E0,-1.3217472E0,-1.2930436E0,1.6822188E0,2.8002346E0,1.959764E0,-1.2420151E0,4.946191E-1,-6.126038E-3,1.3816625E0,-2.0141153E0,-2.783565E-2,4.079979E0,-2.8906304E-1,-1.2014505E0,1.5040441E3,4.1335855E4,1.578939E4,-3.8349297E4,1.6775232E4,7.110261E4,2.1973014E4,1.6677917E5,-8.346687E3,-1.9355365E4,-8.0028016E4,2.1973014E4,8.0521846E3,2.1858904E4,-6.4615815E3,1.2928929E2],"split_indices":[0,0,0,2,3,3,0,3,5,1,1,3,2,3,1,0,0,0,0,0,0,0,0,0,0,0,0,0,0,0,0],"split_type":[0,0,0,0,0,0,0,0,0,0,0,0,0,0,0,0,0,0,0,0,0,0,0,0,0,0,0,0,0,0,0],"sum_hessian":[7.514E3,3.25E2,7.189E3,2.4E2,8.5E1,2.5E2,6.939E3,2.19E2,2.1E1,8.1E1,4E0,2.44E2,6E0,3.19E2,6.62E3,2.04E2,1.5E1,7E0,1.4E1,7.6E1,5E0,1E0,3E0,1.88E2,5.6E1,5E0,1E0,1.78E2,1.41E2,7.12E2,5.908E3],"tree_param":{"num_deleted":"0","num_feature":"15","num_nodes":"31","size_leaf_vector":"1"}},{"base_weights":[3.161693E2,-1.4708698E3,4.883276E4,-1.7114563E3,1.16039266E5,3.8127645E4,3.9064497E5,4.031923E3,-1.7911305E4,5.4382445E4,-1.3173195E5,1.6680453E5,1.0384863E5,-1.2175612E3,1.906587E4,-7.8873696E3,9.571526E1,1.1961503E4,-7.8103336E4,-3.0978588E4,3.778097E4,7.3231766E4,-2.3769232E4],"categories":[],"categories_nodes":[],"categories_segments":[],"categories_sizes":[],"default_left":[0,0,0,0,0,0,0,0,0,0,0,0,0,0,0,0,0,0,0,0,0,0,0],"id":18,"left_children":[1,3,5,7,-1,9,11,13,15,17,19,-1,21,-1,-1,-1,-1,-1,-1,-1,-1,-1,-1],"loss_changes":[6.5163015E11,1.0154275E12,9.62096E11,6.743467E11,0E0,7.250327E11,9.306605E11,4.9443966E12,7.509505E11,5.97794E11,2.000641E11,0E0,3.9400725E11,0E0,0E0,0E0,0E0,0E0,0E0,0E0,0E0,0E0,0E0],"parents":[2147483647,0,0,1,1,2,2,3,3,5,5,6,6,7,7,8,8,9,9,10,10,12,12],"right_children":[2,4,6,8,-1,10,12,14,16,18,20,-1,22,-1,-1,-1,-1,-1,-1,-1,-1,-1,-1],"split_conditions":[2.1074142E0,7.2769923E0,1.1204488E0,1.0383219E0,1.16039266E5,1.5126702E0,-7.449999E-1,9.904826E-1,7.87909E-4,9.95925E0,4.879232E0,1.6680453E5,1.2655675E0,-1.2175612E3,1.906587E4,-7.8873696E3,9.571526E1,1.1961503E4,-7.8103336E4,-3.0978588E4,3.778097E4,7.3231766E4,-2.3769232E4],"split_indices":[3,2,1,0,0,5,5,0,5,11,2,0,1,0,0,0,0,0,0,0,0,0,0],"split_type":[0,0,0,0,0,0,0,0,0,0,0,0,0,0,0,0,0,0,0,0,0,0,0],"sum_hessian":[7.514E3,7.248E3,2.66E2,7.246E3,2E0,2.59E2,7E0,5.35E3,1.896E3,2.37E2,2.2E1,2E0,5E0,4.817E3,5.33E2,8.73E2,1.023E3,2.35E2,2E0,2.1E1,1E0,2E0,3E0],"tree_param":{"num_deleted":"0","num_feature":"15","num_nodes":"23","size_leaf_vector":"1"}},{"base_weights":[2.9059747E2,-2.2453979E4,4.4373135E3,-6.42857E4,-1.920933E4,-4.2831818E2,2.8615107E4,-5.3269965E4,-1.3154595E5,2.8754406E4,-1.9798451E4,3.8607523E4,-2.79807E3,4.5656555E4,-2.625964E4,-7.415332E3,-1.9468328E4,-1.069469E4,-3.370395E4,-1.3118823E4,-3.7019707E3,5.9846016E3,9.27008E4,-5.960186E2,9.054966E4,4.7941377E3,4.573981E4,-6.425172E3,3.1481812E4],"categories":[],"categories_nodes":[],"categories_segments":[],"categories_sizes":[],"default_left":[0,0,0,0,0,0,0,0,0,0,0,0,0,0,0,0,0,0,0,0,0,0,0,0,0,0,0,0,0],"id":19,"left_children":[1,3,5,7,9,11,13,15,17,-1,19,21,23,25,27,-1,-1,-1,-1,-1,-1,-1,-1,-1,-1,-1,-1,-1,-1],"loss_changes":[7.0887906E11,1.560753E11,7.478512E11,5.448899E10,1.0625545E11,4.8973837E11,9.971285E11,4.848853E10,2.2741664E10,0E0,6.2164926E10,1.1042069E12,4.1520248E11,3.2216685E12,2.776495E11,0E0,0E0,0E0,0E0,0E0,0E0,0E0,0E0,0E0,0E0,0E0,0E0,0E0,0E0],"parents":[2147483647,0,0,1,1,2,2,3,3,4,4,5,5,6,6,7,7,8,8,10,10,11,11,12,12,13,13,14,14],"right_children":[2,4,6,8,10,12,14,16,18,-1,20,22,24,26,28,-1,-1,-1,-1,-1,-1,-1,-1,-1,-1,-1,-1,-1,-1],"split_conditions":[-7.888024E-1,-1.19768E0,1.6732469E0,8.371206E-2,-5.061608E0,-1.0477328E0,1.0319433E0,8.032187E-1,-3.7134096E-1,2.8754406E4,1.8436179E-1,2.1074142E0,1.6868032E1,9.617791E-1,2.6050966E0,-7.415332E3,-1.9468328E4,-1.069469E4,-3.370395E4,-1.3118823E4,-3.7019707E3,5.9846016E3,9.27008E4,-5.960186E2,9.054966E4,4.7941377E3,4.573981E4,-6.425172E3,3.1481812E4],"split_indices":[3,3,7,2,1,5,0,7,0,0,6,3,2,0,9,0,0,0,0,0,0,0,0,0,0,0,0,0,0],"split_type":[0,0,0,0,0,0,0,0,0,0,0,0,0,0,0,0,0,0,0,0,0,0,0,0,0,0,0,0,0],"sum_hessian":[7.514E3,1.158E3,6.356E3,8.2E1,1.076E3,5.292E3,1.064E3,7.2E1,1E1,3E0,1.073E3,3.02E2,4.99E3,8.12E2,2.52E2,5.4E1,1.8E1,4E0,6E0,2.8E1,1.045E3,2.97E2,5E0,4.989E3,1E0,7.27E2,8.5E1,2.45E2,7E0],"tree_param":{"num_deleted":"0","num_feature":"15","num_nodes":"29","size_leaf_vector":"1"}},{"base_weights":[2.5974615E2,1.7225453E4,-4.2380234E3,8.271497E3,8.571222E4,-3.8116867E4,-3.6136673E2,2.0447723E4,-1.8709207E4,6.7378516E4,2.1598558E5,2.1382803E5,-4.139621E4,3.236002E4,-5.4111475E3,3.757909E3,1.0873919E5,-1.0196216E4,3.7293735E2,9.409178E3,3.330923E4,6.3089113E4,1.3017811E4,-1.504015E3,8.7411234E4,-8.67537E3,4.0832836E4,4.465734E3,6.1505934E4,-4.1627197E3,1.5203251E3],"categories":[],"categories_nodes":[],"categories_segments":[],"categories_sizes":[],"default_left":[0,0,0,0,0,0,0,0,0,0,0,0,0,0,0,0,0,0,0,0,0,0,0,0,0,0,0,0,0,0,0],"id":20,"left_children":[1,3,5,7,9,11,13,15,17,19,21,23,25,27,29,-1,-1,-1,-1,-1,-1,-1,-1,-1,-1,-1,-1,-1,-1,-1,-1],"loss_changes":[5.7352644E11,9.651245E11,7.8025726E11,4.5834384E11,4.2013478E11,5.128416E11,8.812126E11,8.235848E11,2.882529E11,3.167952E11,3.0964757E11,3.985757E11,3.021357E11,1.9612437E12,9.2613824E11,0E0,0E0,0E0,0E0,0E0,0E0,0E0,0E0,0E0,0E0,0E0,0E0,0E0,0E0,0E0,0E0],"parents":[2147483647,0,0,1,1,2,2,3,3,4,4,5,5,6,6,7,7,8,8,9,9,10,10,11,11,12,12,13,13,14,14],"right_children":[2,4,6,8,10,12,14,16,18,20,22,24,26,28,30,-1,-1,-1,-1,-1,-1,-1,-1,-1,-1,-1,-1,-1,-1,-1,-1],"split_conditions":[-1.0123868E0,-1.0656477E0,-8.593012E-1,-1.229258E0,9.489276E-1,1.8436179E-1,-6.519978E-1,5.071777E0,-2.1519242E-2,8.5923517E-1,-1.0251439E0,4.136099E-3,4.079979E0,2.1074142E0,9.904826E-1,3.757909E3,1.0873919E5,-1.0196216E4,3.7293735E2,9.409178E3,3.330923E4,6.3089113E4,1.3017811E4,-1.504015E3,8.7411234E4,-8.67537E3,4.0832836E4,4.465734E3,6.1505934E4,-4.1627197E3,1.5203251E3],"split_indices":[0,0,0,0,3,6,0,3,5,1,0,5,2,3,0,0,0,0,0,0,0,0,0,0,0,0,0,0,0,0,0],"split_type":[0,0,0,0,0,0,0,0,0,0,0,0,0,0,0,0,0,0,0,0,0,0,0,0,0,0,0,0,0,0,0],"sum_hessian":[7.514E3,1.574E3,5.94E3,1.393E3,1.81E2,6.09E2,5.331E3,9.6E2,4.33E2,1.6E2,2.1E1,7E0,6.02E2,7.12E2,4.619E3,9.58E2,2E0,1.68E2,2.65E2,1.34E2,2.6E1,1.2E1,9E0,4E0,3E0,5.98E2,4E0,6.88E2,2.4E1,2.115E3,2.504E3],"tree_param":{"num_deleted":"0","num_feature":"15","num_nodes":"31","size_leaf_vector":"1"}},{"base_weights":[2.614123E2,6.023006E3,-1.3343899E4,-2.64831E3,1.669339E5,-3.3486703E4,1.8368048E3,3.3738525E3,-3.001158E4,-2.8393574E3,3.7917412E5,-2.343091E4,-6.0795973E4,5.3339508E4,-1.7381771E4,-5.4818213E3,1.4204327E3,-1.0631218E4,-3.2061587E3,-5.9840977E3,6.2668758E4,6.965744E4,4.0547197E5,-7.8869775E3,5.0344326E3,-2.1134264E4,-8.080062E3,9.405925E3,8.0822586E4,-6.7082705E3,5.9488315E3],"categories":[],"categories_nodes":[],"categories_segments":[],"categories_sizes":[],"default_left":[0,0,0,0,0,0,0,0,0,0,0,0,0,0,0,0,0,0,0,0,0,0,0,0,0,0,0,0,0,0,0],"id":21,"left_children":[1,3,5,7,9,11,13,15,17,19,21,23,25,27,29,-1,-1,-1,-1,-1,-1,-1,-1,-1,-1,-1,-1,-1,-1,-1,-1],"loss_changes":[5.8916825E11,7.367675E12,6.8379E11,8.258442E11,9.729911E12,2.6248164E11,1.2639228E12,4.716634E11,2.9166286E11,1.3023275E12,5.402787E12,5.4859366E11,2.3186853E11,7.4902346E11,7.092255E11,0E0,0E0,0E0,0E0,0E0,0E0,0E0,0E0,0E0,0E0,0E0,0E0,0E0,0E0,0E0,0E0],"parents":[2147483647,0,0,1,1,2,2,3,3,4,4,5,5,6,6,7,7,8,8,9,9,10,10,11,11,12,12,13,13,14,14],"right_children":[2,4,6,8,10,12,14,16,18,20,22,24,26,28,30,-1,-1,-1,-1,-1,-1,-1,-1,-1,-1,-1,-1,-1,-1,-1,-1],"split_conditions":[9.9367195E-1,9.904826E-1,1.2137324E0,5.9212167E-2,-5.389327E-1,1.140379E0,1.2456253E0,-9.368376E-1,4.8019746E-1,1.4106863E0,1.7025197E0,1.0893503E0,8.350521E-1,2.4367878E0,1.4529285E0,-5.4818213E3,1.4204327E3,-1.0631218E4,-3.2061587E3,-5.9840977E3,6.2668758E4,6.965744E4,4.0547197E5,-7.8869775E3,5.0344326E3,-2.1134264E4,-8.080062E3,9.405925E3,8.0822586E4,-6.7082705E3,5.9488315E3],"split_indices":[0,0,0,0,3,0,0,7,0,1,5,0,14,3,0,0,0,0,0,0,0,0,0,0,0,0,0,0,0,0,0],"split_type":[0,0,0,0,0,0,0,0,0,0,0,0,0,0,0,0,0,0,0,0,0,0,0,0,0,0,0,0,0,0,0],"sum_hessian":[7.514E3,5.279E3,2.235E3,5.01E3,2.69E2,9.6E2,1.275E3,4.107E3,9.03E2,1.5E2,1.19E2,7.03E2,2.57E2,3.46E2,9.29E2,4.43E2,3.664E3,3.39E2,5.64E2,1.39E2,1.1E1,1.18E2,1E0,5.29E2,1.74E2,7.9E1,1.78E2,3.41E2,5E0,6.92E2,2.37E2],"tree_param":{"num_deleted":"0","num_feature":"15","num_nodes":"31","size_leaf_vector":"1"}},{"base_weights":[2.8515155E2,-8.25236E3,7.6661846E3,-3.28308E4,-5.348859E3,-5.1086032E2,2.6244156E4,-1.177496E5,-3.012986E4,4.8425274E1,-1.8144852E4,-2.2984861E4,8.744063E3,4.25215E4,-5.0998506E3,-9.249831E3,-4.626262E4,-7.1203447E3,-9.833322E2,5.7557397E3,-4.360127E2,-7.9768207E2,-1.1105335E4,-5.475367E3,2.1307006E4,8.3378625E2,1.6892006E4,4.894125E3,8.181407E4,-1.7697635E3,6.186675E4],"categories":[],"categories_nodes":[],"categories_segments":[],"categories_sizes":[],"default_left":[0,0,0,0,0,0,0,0,0,0,0,0,0,0,0,0,0,0,0,0,0,0,0,0,0,0,0,0,0,0,0],"id":22,"left_children":[1,3,5,7,9,11,13,15,17,19,21,23,25,27,29,-1,-1,-1,-1,-1,-1,-1,-1,-1,-1,-1,-1,-1,-1,-1,-1],"loss_changes":[4.7362595E11,2.4852636E11,6.123743E11,8.085704E10,2.153412E11,5.825875E11,6.287798E11,7.862023E10,4.9215767E10,1.4053378E11,4.8928257E11,4.6766545E11,6.869266E11,5.355993E12,5.0019133E11,0E0,0E0,0E0,0E0,0E0,0E0,0E0,0E0,0E0,0E0,0E0,0E0,0E0,0E0,0E0,0E0],"parents":[2147483647,0,0,1,1,2,2,3,3,4,4,5,5,6,6,7,7,8,8,9,9,10,10,11,11,12,12,13,13,14,14],"right_children":[2,4,6,8,10,12,14,16,18,20,22,24,26,28,30,-1,-1,-1,-1,-1,-1,-1,-1,-1,-1,-1,-1,-1,-1,-1,-1],"split_conditions":[-2.549899E-1,-1.0045989E0,4.65704E-2,1.8436179E-1,8.371206E-2,-6.680945E-2,9.908016E-1,-1.0500298E0,1.0893503E0,-1.3153685E0,9.9367195E-1,1.4720643E0,2.2323492E0,9.904826E-1,4.049583E0,-9.249831E3,-4.626262E4,-7.1203447E3,-9.833322E2,5.7557397E3,-4.360127E2,-7.9768207E2,-1.1105335E4,-5.475367E3,2.1307006E4,8.3378625E2,1.6892006E4,4.894125E3,8.181407E4,-1.7697635E3,6.186675E4],"split_indices":[3,3,1,6,2,7,0,3,0,0,0,0,3,0,3,0,0,0,0,0,0,0,0,0,0,0,0,0,0,0,0],"split_type":[0,0,0,0,0,0,0,0,0,0,0,0,0,0,0,0,0,0,0,0,0,0,0,0,0,0,0,0,0,0,0],"sum_hessian":[7.514E3,3.484E3,4.03E3,3.67E2,3.117E3,2.799E3,1.231E3,1E1,3.57E2,2.193E3,9.24E2,8.16E2,1.983E3,8.1E2,4.21E2,7E0,3E0,2.93E2,6.4E1,1.57E2,2.036E3,6.71E2,2.53E2,7.9E2,2.6E1,1.871E3,1.12E2,7.73E2,3.7E1,4.17E2,4E0],"tree_param":{"num_deleted":"0","num_feature":"15","num_nodes":"31","size_leaf_vector":"1"}},{"base_weights":[2.4277878E2,-3.6019656E4,1.6303257E3,-1.9652104E4,-7.538248E4,1.2772856E3,2.1414222E5,-1.1838502E4,-5.2034316E4,-8.835447E3,-1.00046875E5,7.8929736E2,1.1833564E5,5.3307305E4,8.572993E4,-2.9978074E3,8.537185E3,-1.4283141E4,-1.8537811E3,-3.6878766E4,7.5658296E3,-2.7957332E4,-1.5838143E4,4.708839E3,-2.762835E2,9.761454E4,1.18353955E4,2.9720219E4,-3.1009875E4],"categories":[],"categories_nodes":[],"categories_segments":[],"categories_sizes":[],"default_left":[0,0,0,0,0,0,0,0,0,0,0,0,0,0,0,0,0,0,0,0,0,0,0,0,0,0,0,0,0],"id":23,"left_children":[1,3,5,7,9,11,13,15,17,19,21,23,25,27,-1,-1,-1,-1,-1,-1,-1,-1,-1,-1,-1,-1,-1,-1,-1],"loss_changes":[3.7818217E11,1.7698226E11,5.428339E11,4.922926E10,1.3206471E11,4.1279246E11,3.9115325E11,2.8124797E10,3.0834475E10,1.9539978E11,3.783059E10,3.5562275E11,6.273118E11,1.8188127E11,0E0,0E0,0E0,0E0,0E0,0E0,0E0,0E0,0E0,0E0,0E0,0E0,0E0,0E0,0E0],"parents":[2147483647,0,0,1,1,2,2,3,3,4,4,5,5,6,6,7,7,8,8,9,9,10,10,11,11,12,12,13,13],"right_children":[2,4,6,8,10,12,14,16,18,20,22,24,26,28,-1,-1,-1,-1,-1,-1,-1,-1,-1,-1,-1,-1,-1,-1,-1],"split_conditions":[1.9527437E-1,2.3339173E-1,5.6784854E0,6.013902E-1,-6.519978E-1,5.071777E0,4.8019746E-1,9.7099185E-2,1.2303166E0,-1.3217472E0,1.2728174E-1,-1.0579951E0,-1.2133116E0,8.076245E0,8.572993E4,-2.9978074E3,8.537185E3,-1.4283141E4,-1.8537811E3,-3.6878766E4,7.5658296E3,-2.7957332E4,-1.5838143E4,4.708839E3,-2.762835E2,9.761454E4,1.18353955E4,2.9720219E4,-3.1009875E4],"split_indices":[4,3,2,0,0,3,0,3,0,0,5,5,0,2,0,0,0,0,0,0,0,0,0,0,0,0,0,0,0],"split_type":[0,0,0,0,0,0,0,0,0,0,0,0,0,0,0,0,0,0,0,0,0,0,0,0,0,0,0,0,0],"sum_hessian":[7.514E3,2.76E2,7.238E3,1.96E2,8E1,7.227E3,1.1E1,1.59E2,3.7E1,2.2E1,5.8E1,7.198E3,2.9E1,7E0,4E0,1.51E2,8E0,2.5E1,1.2E1,4E0,1.8E1,1.8E1,4E1,6.26E2,6.572E3,3E0,2.6E1,5E0,2E0],"tree_param":{"num_deleted":"0","num_feature":"15","num_nodes":"29","size_leaf_vector":"1"}},{"base_weights":[2.0947534E2,-1.2683445E4,3.8698486E3,-6.8133164E4,-1.1622401E4,5.142541E4,2.1785615E3,-3.2127078E4,-9.589541E4,2.268726E4,-1.1922347E4,1.5060765E4,1.4768319E5,-6.433569E4,4.152277E3,-1.2417963E3,-8.197478E3,-3.7145848E4,-1.4307124E4,-4.4268394E3,-1.6083558E3,7.634013E3,-1.6057278E4,2.1295969E4,1.0768412E5,-1.0901973E4,-5.5104844E4,1.888484E4,3.615742E2],"categories":[],"categories_nodes":[],"categories_segments":[],"categories_sizes":[],"default_left":[0,0,0,0,0,0,0,0,0,0,0,0,0,0,0,0,0,0,0,0,0,0,0,0,0,0,0,0,0],"id":24,"left_children":[1,3,5,7,9,11,13,15,17,-1,19,21,23,25,27,-1,-1,-1,-1,-1,-1,-1,-1,-1,-1,-1,-1,-1,-1],"loss_changes":[3.5470377E11,9.69913E10,4.7072582E11,2.7907047E10,6.2570185E10,7.013521E11,7.425254E11,3.190146E9,2.391543E10,0E0,6.4375636E10,3.2696526E11,8.2815156E11,3.2322296E11,1.1621233E12,0E0,0E0,0E0,0E0,0E0,0E0,0E0,0E0,0E0,0E0,0E0,0E0,0E0,0E0],"parents":[2147483647,0,0,1,1,2,2,3,3,4,4,5,5,6,6,7,7,8,8,10,10,11,11,12,12,13,13,14,14],"right_children":[2,4,6,8,10,12,14,16,18,-1,20,22,24,26,28,-1,-1,-1,-1,-1,-1,-1,-1,-1,-1,-1,-1,-1,-1],"split_conditions":[-6.9794065E-1,-1.2998995E0,-1.3185579E0,5.439831E-1,-5.061608E0,-1.3217472E0,-1.2898543E0,-1.3281257E0,9.908016E-1,2.268726E4,-9.59168E-1,4.136099E-3,2.8002346E0,1.959764E0,-1.2770972E0,-1.2417963E3,-8.197478E3,-3.7145848E4,-1.4307124E4,-4.4268394E3,-1.6083558E3,7.634013E3,-1.6057278E4,2.1295969E4,1.0768412E5,-1.0901973E4,-5.5104844E4,1.888484E4,3.615742E2],"split_indices":[3,3,0,0,1,0,0,0,0,0,3,5,3,3,0,0,0,0,0,0,0,0,0,0,0,0,0,0,0],"split_type":[0,0,0,0,0,0,0,0,0,0,0,0,0,0,0,0,0,0,0,0,0,0,0,0,0,0,0,0,0],"sum_hessian":[7.514E3,1.661E3,5.853E3,3E1,1.631E3,2E2,5.653E3,1.4E1,1.6E1,3E0,1.628E3,1.46E2,5.4E1,1.62E2,5.491E3,4E0,1E1,2E0,1.4E1,4.47E2,1.181E3,1.18E2,2.8E1,5E1,4E0,1.56E2,6E0,1.38E2,5.353E3],"tree_param":{"num_deleted":"0","num_feature":"15","num_nodes":"29","size_leaf_vector":"1"}},{"base_weights":[1.7151866E2,-2.2531709E4,2.176847E3,-2.5646904E4,2.150926E5,-3.765148E3,1.3363059E4,-8.944335E3,-5.213191E4,-7.077697E4,8.015395E4,-4.341415E3,3.21144E5,6.3349254E4,9.32298E3,2.7958562E4,-2.4377422E3,-1.1015516E4,6.3126293E4,2.69453E4,-3.683739E4,-1.2800718E3,4.785211E3,4.664147E3,8.330633E4,2.2681059E4,-4.452958E4,1.1784082E3,1.4756858E4],"categories":[],"categories_nodes":[],"categories_segments":[],"categories_sizes":[],"default_left":[0,0,0,0,0,0,0,0,0,0,0,0,0,0,0,0,0,0,0,0,0,0,0,0,0,0,0,0,0],"id":25,"left_children":[1,3,5,7,9,11,13,15,17,19,-1,21,23,25,27,-1,-1,-1,-1,-1,-1,-1,-1,-1,-1,-1,-1,-1,-1],"loss_changes":[3.4218764E11,4.5706658E11,4.5908115E11,2.6628139E11,4.5300082E11,8.4600914E11,4.8327714E11,1.8073338E11,2.6979513E11,1.18039446E11,0E0,2.62291E11,2.1755547E11,2.5877925E12,4.901045E11,0E0,0E0,0E0,0E0,0E0,0E0,0E0,0E0,0E0,0E0,0E0,0E0,0E0,0E0],"parents":[2147483647,0,0,1,1,2,2,3,3,4,4,5,5,6,6,7,7,8,8,9,9,11,11,12,12,13,13,14,14],"right_children":[2,4,6,8,10,12,14,16,18,20,-1,22,24,26,28,-1,-1,-1,-1,-1,-1,-1,-1,-1,-1,-1,-1,-1,-1],"split_conditions":[-1.4916879E0,5.071777E0,7.438376E-2,2.901803E-1,2.6651552E-1,3.2807255E0,8.350521E-1,-3.5813973E0,4.879232E0,-1.2770972E0,8.015395E4,8.829654E-1,-2.549899E-1,1.028754E0,1.4529285E0,2.7958562E4,-2.4377422E3,-1.1015516E4,6.3126293E4,2.69453E4,-3.683739E4,-1.2800718E3,4.785211E3,4.664147E3,8.330633E4,2.2681059E4,-4.452958E4,1.1784082E3,1.4756858E4],"split_indices":[1,3,3,3,0,2,14,1,2,0,0,2,3,0,0,0,0,0,0,0,0,0,0,0,0,0,0,0,0],"split_type":[0,0,0,0,0,0,0,0,0,0,0,0,0,0,0,0,0,0,0,0,0,0,0,0,0,0,0,0,0],"sum_hessian":[7.514E3,6.09E2,6.905E3,6.02E2,7E0,4.51E3,2.395E3,3.7E2,2.32E2,3E0,4E0,4.503E3,7E0,1.78E2,2.217E3,7E0,3.63E2,2.31E2,1E0,1E0,2E0,4.198E3,3.05E2,2E0,5E0,1.52E2,2.6E1,2.106E3,1.11E2],"tree_param":{"num_deleted":"0","num_feature":"15","num_nodes":"29","size_leaf_vector":"1"}},{"base_weights":[1.6827774E2,2.193715E3,-1.7732145E4,-2.0716707E2,3.1393152E4,-4.7555297E4,-5.7495917E2,4.096258E3,-2.3032496E4,2.7870033E4,2.2559116E5,-3.6337746E4,-8.6230625E4,-6.859446E3,1.2623273E5,-5.112587E2,2.848053E4,-2.8095225E3,-8.83053E3,9.289128E3,7.9622076E2,5.5636996E4,-1.9515926E4,-1.7122354E3,-9.415077E3,9.325944E3,-2.2535484E4,-8.6251045E3,2.154822E3,3.6063474E3,5.3018168E4],"categories":[],"categories_nodes":[],"categories_segments":[],"categories_sizes":[],"default_left":[0,0,0,0,0,0,0,0,0,0,0,0,0,0,0,0,0,0,0,0,0,0,0,0,0,0,0,0,0,0,0],"id":26,"left_children":[1,3,5,7,9,11,13,15,17,19,21,23,25,27,29,-1,-1,-1,-1,-1,-1,-1,-1,-1,-1,-1,-1,-1,-1,-1,-1],"loss_changes":[2.7250411E11,4.733515E11,3.9089717E11,6.130314E11,3.4469855E11,1.17908636E11,3.881696E11,4.8317575E12,1.8724425E11,2.2390948E11,1.8011626E11,6.461653E10,2.2310535E11,2.9719252E11,3.407854E11,0E0,0E0,0E0,0E0,0E0,0E0,0E0,0E0,0E0,0E0,0E0,0E0,0E0,0E0,0E0,0E0],"parents":[2147483647,0,0,1,1,2,2,3,3,4,4,5,5,6,6,7,7,8,8,9,9,10,10,11,11,12,12,13,13,14,14],"right_children":[2,4,6,8,10,12,14,16,18,20,22,24,26,28,30,-1,-1,-1,-1,-1,-1,-1,-1,-1,-1,-1,-1,-1,-1,-1,-1],"split_conditions":[1.2838967E0,1.2137324E0,-2.062377E-1,9.908016E-1,2.6525843E0,7.558465E-1,1.8575445E0,9.904826E-1,1.1212432E0,1.2328681E0,8.032187E-1,-6.7522526E-1,-1.1554853E0,-1.5659578E-1,1.754666E-2,-5.112587E2,2.848053E4,-2.8095225E3,-8.83053E3,9.289128E3,7.9622076E2,5.5636996E4,-1.9515926E4,-1.7122354E3,-9.415077E3,9.325944E3,-2.2535484E4,-8.6251045E3,2.154822E3,3.6063474E3,5.3018168E4],"split_indices":[0,0,5,0,3,3,3,0,0,0,7,3,5,1,1,0,0,0,0,0,0,0,0,0,0,0,0,0,0,0,0],"split_type":[0,0,0,0,0,0,0,0,0,0,0,0,0,0,0,0,0,0,0,0,0,0,0,0,0,0,0,0,0,0,0],"sum_hessian":[7.514E3,6.751E3,7.63E2,6.239E3,5.12E2,2.78E2,4.85E2,5.25E3,9.89E2,5.04E2,8E0,2.17E2,6.1E1,4.63E2,2.2E1,5.01E3,2.4E2,6.95E2,2.94E2,2.83E2,2.21E2,7E0,1E0,6.1E1,1.56E2,1E1,5.1E1,1.51E2,3.12E2,1.3E1,9E0],"tree_param":{"num_deleted":"0","num_feature":"15","num_nodes":"31","size_leaf_vector":"1"}},{"base_weights":[1.4637724E2,1.1971692E4,-2.8538647E3,4.3433857E3,9.495519E4,-2.7546492E4,2.2167134E2,7.6069946E3,-7.83756E4,2.0515545E4,1.28558266E5,1.4766083E5,-2.990826E4,2.5534736E4,-3.684917E3,8.463055E2,4.3947695E4,6.911752E4,-2.4007531E4,-4.3505522E3,5.398077E3,4.9542555E4,2.0136229E4,-6.3865E2,9.008668E4,-5.4047324E3,-3.2051488E4,3.5497173E3,4.7819934E4,-2.6817146E3,9.06046E2],"categories":[],"categories_nodes":[],"categories_segments":[],"categories_sizes":[],"default_left":[0,0,0,0,0,0,0,0,0,0,0,0,0,0,0,0,0,0,0,0,0,0,0,0,0,0,0,0,0,0,0],"id":27,"left_children":[1,3,5,7,9,11,13,15,17,19,21,23,25,27,29,-1,-1,-1,-1,-1,-1,-1,-1,-1,-1,-1,-1,-1,-1,-1,-1],"loss_changes":[2.6665742E11,9.6241635E11,4.5528482E11,3.769238E11,3.1754197E11,2.7917884E11,5.2736344E11,9.5999964E11,9.776317E11,1.1808016E10,2.6736814E11,4.1250865E11,2.4232854E11,1.1813674E12,3.6911222E11,0E0,0E0,0E0,0E0,0E0,0E0,0E0,0E0,0E0,0E0,0E0,0E0,0E0,0E0,0E0,0E0],"parents":[2147483647,0,0,1,1,2,2,3,3,4,4,5,5,6,6,7,7,8,8,9,9,10,10,11,11,12,12,13,13,14,14],"right_children":[2,4,6,8,10,12,14,16,18,20,22,24,26,28,30,-1,-1,-1,-1,-1,-1,-1,-1,-1,-1,-1,-1,-1,-1,-1,-1],"split_conditions":[-1.0130246E0,-1.0656477E0,-8.593012E-1,2.481472E0,-6.525098E-1,1.8436179E-1,-6.519978E-1,3.0841775E0,-6.8342704E-1,-1.0404525E0,-8.5275227E-1,8.032187E-1,2.4367878E0,2.1074142E0,9.904826E-1,8.463055E2,4.3947695E4,6.911752E4,-2.4007531E4,-4.3505522E3,5.398077E3,4.9542555E4,2.0136229E4,-6.3865E2,9.008668E4,-5.4047324E3,-3.2051488E4,3.5497173E3,4.7819934E4,-2.6817146E3,9.06046E2],"split_indices":[0,0,0,2,3,6,0,3,5,0,5,7,3,3,0,0,0,0,0,0,0,0,0,0,0,0,0,0,0,0,0],"split_type":[0,0,0,0,0,0,0,0,0,0,0,0,0,0,0,0,0,0,0,0,0,0,0,0,0,0,0,0,0,0,0],"sum_hessian":[7.514E3,1.52E3,5.994E3,1.393E3,1.27E2,6.63E2,5.331E3,1.341E3,5.2E1,4E1,8.7E1,8E0,6.55E2,7.12E2,4.619E3,1.321E3,2E1,4E0,4.8E1,5E0,3.5E1,1.5E1,7.2E1,6E0,2E0,6.42E2,1.3E1,6.88E2,2.4E1,2.115E3,2.504E3],"tree_param":{"num_deleted":"0","num_feature":"15","num_nodes":"31","size_leaf_vector":"1"}},{"base_weights":[1.5199652E2,-1.009323E4,3.060677E3,-7.925938E3,-4.2155598E4,8.1187583E3,-8.492643E3,-4.893019E3,-2.1397895E4,-8.957473E2,-6.190122E4,-1.1390562E2,2.2337623E5,-4.137423E4,1.4188005E3,-6.1263726E3,-5.4404407E2,4.990209E3,-7.7186406E3,3.0667078E4,-6.3424233E3,-4.3955836E4,-1.0827968E4,1.7631149E3,-2.5547122E3,3.3912566E4,1.9196155E5,-4.0041372E3,-2.9508467E4,-1.4878702E4,9.0476855E2],"categories":[],"categories_nodes":[],"categories_segments":[],"categories_sizes":[],"default_left":[0,0,0,0,0,0,0,0,0,0,0,0,0,0,0,0,0,0,0,0,0,0,0,0,0,0,0,0,0,0,0],"id":28,"left_children":[1,3,5,7,9,11,13,15,17,19,21,23,25,27,29,-1,-1,-1,-1,-1,-1,-1,-1,-1,-1,-1,-1,-1,-1,-1,-1],"loss_changes":[2.2397857E11,1.1515581E11,3.4216287E11,6.355416E10,8.5488206E10,7.21619E12,5.8114546E11,7.110961E10,2.2890047E11,1.7121214E11,7.510106E10,4.4358474E11,5.7817353E12,9.333443E11,3.2307053E11,0E0,0E0,0E0,0E0,0E0,0E0,0E0,0E0,0E0,0E0,0E0,0E0,0E0,0E0,0E0,0E0],"parents":[2147483647,0,0,1,1,2,2,3,3,4,4,5,5,6,6,7,7,8,8,9,9,10,10,11,11,12,12,13,13,14,14],"right_children":[2,4,6,8,10,12,14,16,18,20,22,24,26,28,30,-1,-1,-1,-1,-1,-1,-1,-1,-1,-1,-1,-1,-1,-1,-1,-1],"split_conditions":[-6.9794065E-1,8.371206E-2,9.9367195E-1,1.6732469E0,-1.5659578E-1,9.904826E-1,8.350521E-1,-1.0733882E0,-1.0631261E0,-7.193445E-1,-1.2757204E-1,-5.260212E-1,6.057785E-2,-2.783565E-2,1.028754E0,-6.1263726E3,-5.4404407E2,4.990209E3,-7.7186406E3,3.0667078E4,-6.3424233E3,-4.3955836E4,-1.0827968E4,1.7631149E3,-2.5547122E3,3.3912566E4,1.9196155E5,-4.0041372E3,-2.9508467E4,-1.4878702E4,9.0476855E2],"split_indices":[3,2,0,7,1,0,14,5,5,5,1,0,5,3,0,0,0,0,0,0,0,0,0,0,0,0,0,0,0,0,0],"split_type":[0,0,0,0,0,0,0,0,0,0,0,0,0,0,0,0,0,0,0,0,0,0,0,0,0,0,0,0,0,0,0],"sum_hessian":[7.514E3,1.661E3,5.853E3,1.557E3,1.04E2,4.071E3,1.782E3,1.272E3,2.85E2,3.4E1,7E1,3.922E3,1.49E2,4.12E2,1.37E3,9.8E1,1.174E3,7.7E1,2.08E2,5E0,2.9E1,2E0,6.8E1,2.3E3,1.622E3,1.4E2,9E0,3.44E2,6.8E1,5.3E1,1.317E3],"tree_param":{"num_deleted":"0","num_feature":"15","num_nodes":"31","size_leaf_vector":"1"}},{"base_weights":[1.3992151E2,1.8119547E4,-1.4680751E3,1.1520981E4,1.5151384E5,-9.041762E3,5.1747524E3,1.0855088E5,6.4846396E3,2.692566E5,-1.4005406E5,-9.873496E3,2.1440866E5,1.8591082E4,-4.399141E3,1.2643189E4,7.521805E4,2.4154136E3,-1.2233095E4,1.545083E4,1.1432075E5,5.348819E3,-3.8306254E4,-1.6532646E3,-4.4616434E4,6.972424E4,-8.64263E3,7.1597205E2,9.419987E3,-1.6611536E3,4.844216E3],"categories":[],"categories_nodes":[],"categories_segments":[],"categories_sizes":[],"default_left":[0,0,0,0,0,0,0,0,0,0,0,0,0,0,0,0,0,0,0,0,0,0,0,0,0,0,0,0,0,0,0],"id":29,"left_children":[1,3,5,7,9,11,13,15,17,19,21,23,25,27,29,-1,-1,-1,-1,-1,-1,-1,-1,-1,-1,-1,-1,-1,-1,-1,-1],"loss_changes":[2.1729408E11,5.4134453E11,3.4714026E11,2.8712613E11,1.0332807E12,6.0130204E11,4.722512E11,3.279626E11,2.1298096E11,1.1749204E12,8.239905E10,1.09913276E12,4.2997796E11,6.5502714E11,2.4014224E11,0E0,0E0,0E0,0E0,0E0,0E0,0E0,0E0,0E0,0E0,0E0,0E0,0E0,0E0,0E0,0E0],"parents":[2147483647,0,0,1,1,2,2,3,3,4,4,5,5,6,6,7,7,8,8,9,9,10,10,11,11,12,12,13,13,14,14],"right_children":[2,4,6,8,10,12,14,16,18,20,22,24,26,28,30,-1,-1,-1,-1,-1,-1,-1,-1,-1,-1,-1,-1,-1,-1,-1,-1],"split_conditions":[-1.0631261E0,-1.0733882E0,7.87909E-4,-1.5659578E-1,9.908016E-1,5.071777E0,1.5806815E-1,2.1074142E0,8.3535045E-1,5.567402E-1,8.371206E-2,3.4249089E0,2.481472E0,1.5388775E-1,1.754666E-2,1.2643189E4,7.521805E4,2.4154136E3,-1.2233095E4,1.545083E4,1.1432075E5,5.348819E3,-3.8306254E4,-1.6532646E3,-4.4616434E4,6.972424E4,-8.64263E3,7.1597205E2,9.419987E3,-1.6611536E3,4.844216E3],"split_indices":[5,5,5,1,0,3,5,3,3,0,2,3,2,3,1,0,0,0,0,0,0,0,0,0,0,0,0,0,0,0,0],"split_type":[0,0,0,0,0,0,0,0,0,0,0,0,0,0,0,0,0,0,0,0,0,0,0,0,0,0,0,0,0,0,0],"sum_hessian":[7.514E3,6.16E2,6.898E3,5.88E2,2.8E1,3.223E3,3.675E3,2.8E1,5.6E2,2E1,8E0,3.212E3,1.1E1,1.53E3,2.145E3,2.5E1,3E0,5.18E2,4.2E1,1.3E1,7E0,2E0,6E0,3.189E3,2.3E1,7E0,4E0,1.003E3,5.27E2,1.888E3,2.57E2],"tree_param":{"num_deleted":"0","num_feature":"15","num_nodes":"31","size_leaf_vector":"1"}},{"base_weights":[1.3894386E2,2.4706488E4,-1.0717893E3,1.4504742E3,7.408695E4,-5.05484E4,5.253046E2,5.1493257E3,-4.379876E4,5.4609156E4,4.123395E5,-4.3816734E4,-6.732637E4,4.3372113E4,-1.5456068E3,3.9057896E3,-3.6587798E3,2.5706715E4,5.6761694E3,2.3165367E4,1.0632783E5,-6.8222144E3,-1.5061961E4,5.797099E3,1.6954982E4,-1.4722362E3,8.4011926E2],"categories":[],"categories_nodes":[],"categories_segments":[],"categories_sizes":[],"default_left":[0,0,0,0,0,0,0,0,0,0,0,0,0,0,0,0,0,0,0,0,0,0,0,0,0,0,0],"id":30,"left_children":[1,3,5,7,9,11,13,15,-1,17,19,21,-1,23,25,-1,-1,-1,-1,-1,-1,-1,-1,-1,-1,-1,-1],"loss_changes":[2.235582E11,4.052752E11,5.660381E11,1.9763683E11,7.219733E11,4.1663293E11,6.1586676E11,8.058818E10,0E0,2.0575463E11,1.506651E11,6.467653E10,0E0,1.881496E11,2.2128797E11,0E0,0E0,0E0,0E0,0E0,0E0,0E0,0E0,0E0,0E0,0E0,0E0],"parents":[2147483647,0,0,1,1,2,2,3,3,4,4,5,5,6,6,7,7,9,9,10,10,11,11,13,13,14,14],"right_children":[2,4,6,8,10,12,14,16,-1,18,20,22,-1,24,26,-1,-1,-1,-1,-1,-1,-1,-1,-1,-1,-1,-1],"split_conditions":[-1.3153685E0,-1.3217472E0,-1.2930436E0,3.0841775E0,3.0841775E0,1.959764E0,-1.2420151E0,-1.3281257E0,-4.379876E4,-5.9619886E-1,-2.0141153E0,-2.783565E-2,-6.732637E4,4.2387903E-1,7.87909E-4,3.9057896E3,-3.6587798E3,2.5706715E4,5.6761694E3,2.3165367E4,1.0632783E5,-6.8222144E3,-1.5061961E4,5.797099E3,1.6954982E4,-1.4722362E3,8.4011926E2],"split_indices":[0,0,0,3,3,3,0,0,0,5,1,3,0,1,5,0,0,0,0,0,0,0,0,0,0,0,0],"split_type":[0,0,0,0,0,0,0,0,0,0,0,0,0,0,0,0,0,0,0,0,0,0,0,0,0,0,0],"sum_hessian":[7.514E3,3.52E2,7.162E3,2.4E2,1.12E2,2.23E2,6.939E3,2.37E2,3E0,1.07E2,5E0,2.19E2,4E0,3.19E2,6.62E3,1.47E2,9E1,2.7E1,8E1,2E0,3E0,1.69E2,5E1,2.38E2,8.1E1,3.29E3,3.33E3],"tree_param":{"num_deleted":"0","num_feature":"15","num_nodes":"27","size_leaf_vector":"1"}},{"base_weights":[1.178414E2,3.125998E1,6.5069062E4,1.7750107E3,-1.5399719E4,-2.3762651E2,2.6252754E4,-3.0213367E4,1.7404395E4,2.9518347E2,-6.954979E3,4.6586226E3,3.788089E4,-6.608478E3,1.512164E4,8.550185E2,6.3264996E4],"categories":[],"categories_nodes":[],"categories_segments":[],"categories_sizes":[],"default_left":[0,0,0,0,0,0,0,0,0,0,0,0,0,0,0,0,0],"id":31,"left_children":[1,3,-1,5,7,9,11,13,15,-1,-1,-1,-1,-1,-1,-1,-1],"loss_changes":[2.1160213E11,2.0221241E11,0E0,3.326423E11,3.7130463E11,3.6934156E11,2.4330066E11,1.5996767E11,9.327069E11,0E0,0E0,0E0,0E0,0E0,0E0,0E0,0E0],"parents":[2147483647,0,0,1,1,3,3,4,4,5,5,6,6,7,7,8,8],"right_children":[2,4,-1,6,8,10,12,14,16,-1,-1,-1,-1,-1,-1,-1,-1],"split_conditions":[1.6868032E1,1.2838967E0,6.5069062E4,1.2137324E0,1.4529285E0,1.1212432E0,2.6525843E0,2.2323492E0,3.1905293E0,2.9518347E2,-6.954979E3,4.6586226E3,3.788089E4,-6.608478E3,1.512164E4,8.550185E2,6.3264996E4],"split_indices":[2,0,0,0,0,0,3,3,5,0,0,0,0,0,0,0,0],"split_type":[0,0,0,0,0,0,0,0,0,0,0,0,0,0,0,0,0],"sum_hessian":[7.514E3,7.513E3,1E0,6.751E3,7.62E2,6.239E3,5.12E2,5.25E2,2.37E2,5.945E3,2.94E2,5.04E2,8E0,5.12E2,1.3E1,2.28E2,9E0],"tree_param":{"num_deleted":"0","num_feature":"15","num_nodes":"17","size_leaf_vector":"1"}},{"base_weights":[1.17369156E2,-2.6191264E4,1.1240515E3,-1.3318341E4,-6.4068074E4,8.9513043E2,1.3891722E5,-7.0386187E3,-4.0349992E4,-5.1349523E4,-1.5621812E5,2.42006E4,-2.056197E2,4.6965652E4,3.1107894E5,-6.5208215E2,-7.752471E3,-1.0730237E4,-2.5531272E3,-1.5550257E4,-2.653502E3,-3.544314E4,-9.235125E2,8.9481445E2,1.3253226E4,-8.081449E3,2.5595645E2,2.2347592E4,-2.396499E4,7.748908E4,8.197963E3],"categories":[],"categories_nodes":[],"categories_segments":[],"categories_sizes":[],"default_left":[0,0,0,0,0,0,0,0,0,0,0,0,0,0,0,0,0,0,0,0,0,0,0,0,0,0,0,0,0,0,0],"id":32,"left_children":[1,3,5,7,9,11,13,15,17,19,21,23,25,27,29,-1,-1,-1,-1,-1,-1,-1,-1,-1,-1,-1,-1,-1,-1,-1,-1],"loss_changes":[1.9905998E11,1.3420785E11,2.2822101E11,3.5024253E10,7.401931E10,1.8542846E11,1.7535643E11,2.0249629E10,1.3624406E10,6.2310646E10,2.4647647E10,2.7022051E11,4.1226833E11,1.10619705E11,6.662167E10,0E0,0E0,0E0,0E0,0E0,0E0,0E0,0E0,0E0,0E0,0E0,0E0,0E0,0E0,0E0,0E0],"parents":[2147483647,0,0,1,1,2,2,3,3,4,4,5,5,6,6,7,7,8,8,9,9,10,10,11,11,12,12,13,13,14,14],"right_children":[2,4,6,8,10,12,14,16,18,20,22,24,26,28,30,-1,-1,-1,-1,-1,-1,-1,-1,-1,-1,-1,-1,-1,-1,-1,-1],"split_conditions":[1.9527437E-1,3.242534E-1,5.6784854E0,6.013902E-1,9.617791E-1,-1.3153685E0,5.280367E-1,2.1335294E0,1.2303166E0,-4.468332E-1,1.322168E0,-1.3217472E0,-1.2898543E0,8.076245E0,2.6525843E0,-6.5208215E2,-7.752471E3,-1.0730237E4,-2.5531272E3,-1.5550257E4,-2.653502E3,-3.544314E4,-9.235125E2,8.9481445E2,1.3253226E4,-8.081449E3,2.5595645E2,2.2347592E4,-2.396499E4,7.748908E4,8.197963E3],"split_indices":[4,3,2,0,0,0,0,5,0,1,0,0,0,2,3,0,0,0,0,0,0,0,0,0,0,0,0,0,0,0,0],"split_type":[0,0,0,0,0,0,0,0,0,0,0,0,0,0,0,0,0,0,0,0,0,0,0,0,0,0,0,0,0,0,0],"sum_hessian":[7.514E3,2.76E2,7.238E3,2.07E2,6.9E1,7.227E3,1.1E1,1.69E2,3.8E1,6.2E1,7E0,3.25E2,6.902E3,8E0,3E0,1.52E2,1.7E1,2.5E1,1.3E1,3.6E1,2.6E1,6E0,1E0,2.22E2,1.03E2,2.45E2,6.657E3,6E0,2E0,2E0,1E0],"tree_param":{"num_deleted":"0","num_feature":"15","num_nodes":"31","size_leaf_vector":"1"}},{"base_weights":[9.577102E1,-1.6472717E4,1.559235E3,-1.87257E4,1.5540497E5,1.4472734E5,1.2265911E3,-4.49589E3,-4.068188E4,-5.0834234E4,2.893153E5,9.9922375E4,8.16802E4,-2.8802256E3,8.957062E3,-1.2014255E3,3.617398E4,-8.593925E3,4.992256E4,2.4949525E4,-3.0188812E4,1.43125625E4,6.517255E4,2.6246807E4,-3.7986345E3,-8.028302E2,1.9227805E4,2.8196514E3,-3.1112861E3],"categories":[],"categories_nodes":[],"categories_segments":[],"categories_sizes":[],"default_left":[0,0,0,0,0,0,0,0,0,0,0,0,0,0,0,0,0,0,0,0,0,0,0,0,0,0,0,0,0],"id":33,"left_children":[1,3,5,7,9,11,13,15,17,19,21,23,-1,25,27,-1,-1,-1,-1,-1,-1,-1,-1,-1,-1,-1,-1,-1,-1],"loss_changes":[1.8224479E11,2.3912494E11,3.2871383E11,1.8821376E11,2.3564761E11,1.4821386E11,2.1879867E11,1.0389482E11,1.6812216E11,8.913979E10,1.6471818E10,5.8344178E10,0E0,5.0576015E11,3.015538E11,0E0,0E0,0E0,0E0,0E0,0E0,0E0,0E0,0E0,0E0,0E0,0E0,0E0,0E0],"parents":[2147483647,0,0,1,1,2,2,3,3,4,4,5,5,6,6,7,7,8,8,9,9,10,10,11,11,13,13,14,14],"right_children":[2,4,6,8,10,12,14,16,18,20,22,24,-1,26,28,-1,-1,-1,-1,-1,-1,-1,-1,-1,-1,-1,-1,-1,-1],"split_conditions":[-1.4916879E0,5.071777E0,-1.375593E0,2.5610715E-1,2.6651552E-1,6.6498476E-1,7.438376E-2,3.2807255E0,4.879232E0,-1.2770972E0,5.280367E-1,-8.0827266E-1,8.16802E4,1.6822188E0,7.48141E-1,-1.2014255E3,3.617398E4,-8.593925E3,4.992256E4,2.4949525E4,-3.0188812E4,1.43125625E4,6.517255E4,2.6246807E4,-3.7986345E3,-8.028302E2,1.9227805E4,2.8196514E3,-3.1112861E3],"split_indices":[1,3,1,3,0,3,3,2,2,0,0,0,0,2,5,0,0,0,0,0,0,0,0,0,0,0,0,0,0],"split_type":[0,0,0,0,0,0,0,0,0,0,0,0,0,0,0,0,0,0,0,0,0,0,0,0,0,0,0,0,0],"sum_hessian":[7.514E3,6.09E2,6.905E3,6.02E2,7E0,1.5E1,6.89E3,3.66E2,2.36E2,3E0,4E0,1.4E1,1E0,4.5E3,2.39E3,3.64E2,2E0,2.35E2,1E0,1E0,2E0,1E0,3E0,1.1E1,3E0,4.45E3,5E1,1.976E3,4.14E2],"tree_param":{"num_deleted":"0","num_feature":"15","num_nodes":"29","size_leaf_vector":"1"}},{"base_weights":[1.1292471E2,1.539292E4,-1.2899036E3,1.0174815E5,9.541989E3,-7.0771123E3,3.666005E3,1.694443E4,2.9821147E5,1.4700444E4,-5.8482043E4,-7.770493E3,1.7639192E5,1.5535479E4,-2.2942437E3,-6.012484E3,6.365057E4,1.2707865E5,1.0039281E4,-8.907925E2,7.9239463E3,-6.743222E3,-5.7065883E4,-1.2843945E3,-3.6798105E4,5.68196E4,-6.2432324E3,-1.2210245E4,3.8962915E3,-1.2112606E3,4.564107E3],"categories":[],"categories_nodes":[],"categories_segments":[],"categories_sizes":[],"default_left":[0,0,0,0,0,0,0,0,0,0,0,0,0,0,0,0,0,0,0,0,0,0,0,0,0,0,0,0,0,0,0],"id":34,"left_children":[1,3,5,7,9,11,13,15,17,19,21,23,25,27,29,-1,-1,-1,-1,-1,-1,-1,-1,-1,-1,-1,-1,-1,-1,-1,-1],"loss_changes":[1.6110546E11,3.183525E11,1.974651E11,6.6137974E11,2.089428E11,4.0540222E11,2.6242887E11,4.2031068E11,9.716196E11,2.6365388E11,2.2633942E11,7.509375E11,2.771963E11,3.75929E11,2.335119E11,0E0,0E0,0E0,0E0,0E0,0E0,0E0,0E0,0E0,0E0,0E0,0E0,0E0,0E0,0E0,0E0],"parents":[2147483647,0,0,1,1,2,2,3,3,4,4,5,5,6,6,7,7,8,8,9,9,10,10,11,11,12,12,13,13,14,14],"right_children":[2,4,6,8,10,12,14,16,18,20,22,24,26,28,30,-1,-1,-1,-1,-1,-1,-1,-1,-1,-1,-1,-1,-1,-1,-1,-1],"split_conditions":[-1.0579951E0,-4.0500823E-2,-6.126038E-3,-1.0887815E0,8.92139E-1,5.071777E0,4.136099E-3,2.1074142E0,8.032187E-1,-3.9128244E-1,-1.0887815E0,3.4249089E0,2.481472E0,-9.368376E-1,1.754666E-2,-6.012484E3,6.365057E4,1.2707865E5,1.0039281E4,-8.907925E2,7.9239463E3,-6.743222E3,-5.7065883E4,-1.2843945E3,-3.6798105E4,5.68196E4,-6.2432324E3,-1.2210245E4,3.8962915E3,-1.2112606E3,4.564107E3],"split_indices":[5,1,5,5,3,3,5,3,7,3,5,3,2,7,1,0,0,0,0,0,0,0,0,0,0,0,0,0,0,0,0],"split_type":[0,0,0,0,0,0,0,0,0,0,0,0,0,0,0,0,0,0,0,0,0,0,0,0,0,0,0,0,0,0,0],"sum_hessian":[7.514E3,6.31E2,6.883E3,3.9E1,5.92E2,3.175E3,3.708E3,2.8E1,1.1E1,5.51E2,4.1E1,3.164E3,1.1E1,1.239E3,2.469E3,2.5E1,3E0,4E0,7E0,3.12E2,2.39E2,3.8E1,3E0,3.141E3,2.3E1,7E0,4E0,6E1,1.179E3,2.148E3,3.21E2],"tree_param":{"num_deleted":"0","num_feature":"15","num_nodes":"31","size_leaf_vector":"1"}},{"base_weights":[1.0970339E2,1.1412047E4,-1.5473007E3,-3.1852312E3,3.6563125E4,-3.8271117E4,-2.1787103E2,1.705621E4,-3.0975285E4,4.1716984E4,-1.0143914E5,-4.397558E4,2.9359866E5,2.9682994E4,-1.8787168E3,2.6644487E3,4.6156734E4,-5.330543E3,-5.9542934E4,7.3083877E3,7.6434336E4,-5.6126812E4,1.844942E4,-7.077282E3,-7.0602805E4,7.5570234E4,4.0841125E3,6.86648E3,-7.226273E4,-4.4262456E3,1.2874078E2],"categories":[],"categories_nodes":[],"categories_segments":[],"categories_sizes":[],"default_left":[0,0,0,0,0,0,0,0,0,0,0,0,0,0,0,0,0,0,0,0,0,0,0,0,0,0,0,0,0,0,0],"id":35,"left_children":[1,3,5,7,9,11,13,15,17,19,21,23,25,27,29,-1,-1,-1,-1,-1,-1,-1,-1,-1,-1,-1,-1,-1,-1,-1,-1],"loss_changes":[1.407588E11,3.5293535E11,3.2001812E11,3.430974E11,2.55301E11,4.464398E11,3.1425918E11,2.7863764E11,2.8838596E11,5.868319E11,4.7708635E11,5.873988E11,8.434781E10,6.177659E11,3.0627096E11,0E0,0E0,0E0,0E0,0E0,0E0,0E0,0E0,0E0,0E0,0E0,0E0,0E0,0E0,0E0,0E0],"parents":[2147483647,0,0,1,1,2,2,3,3,4,4,5,5,6,6,7,7,8,8,9,9,10,10,11,11,12,12,13,13,14,14],"right_children":[2,4,6,8,10,12,14,16,18,20,22,24,26,28,30,-1,-1,-1,-1,-1,-1,-1,-1,-1,-1,-1,-1,-1,-1,-1,-1],"split_conditions":[-1.229258E0,-1.2898543E0,-1.1335795E0,-1.3153685E0,2.481472E0,4.049583E0,-1.0130246E0,4.049583E0,2.4367878E0,3.0841775E0,-5.230565E-2,3.4249089E0,-1.206933E0,4.049583E0,-8.593012E-1,2.6644487E3,4.6156734E4,-5.330543E3,-5.9542934E4,7.3083877E3,7.6434336E4,-5.6126812E4,1.844942E4,-7.077282E3,-7.0602805E4,7.5570234E4,4.0841125E3,6.86648E3,-7.226273E4,-4.4262456E3,1.2874078E2],"split_indices":[0,0,0,0,2,3,0,3,3,3,5,3,0,3,0,0,0,0,0,0,0,0,0,0,0,0,0,0,0,0,0],"split_type":[0,0,0,0,0,0,0,0,0,0,0,0,0,0,0,0,0,0,0,0,0,0,0,0,0,0,0,0,0,0,0],"sum_hessian":[7.514E3,9.6E2,6.554E3,6.08E2,3.52E2,2.28E2,6.326E3,3.52E2,2.56E2,3.4E2,1.2E1,2.25E2,3E0,3.32E2,5.994E3,3.47E2,5E0,2.53E2,3E0,3.36E2,4E0,6E0,6E0,2.2E2,5E0,2E0,1E0,3.29E2,3E0,6.63E2,5.331E3],"tree_param":{"num_deleted":"0","num_feature":"15","num_nodes":"31","size_leaf_vector":"1"}},{"base_weights":[8.274307E1,1.7193823E3,-1.1507567E4,-2.4008835E1,3.3065324E4,-3.7174535E4,-3.3591821E3,2.3672085E3,-1.9741773E4,1.9886484E4,1.1094989E5,-1.8034879E4,-1.7050803E5,-1.3559058E4,2.7259424E4,-2.512253E2,7.0037163E3,-9.065312E3,-1.0490819E3,3.0753213E3,3.2599031E4,2.799599E4,-1.1791091E4,-1.7388016E3,-1.5826937E4,-3.688282E4,1.3694542E3,9.1083215E2,-7.3845757E3,-3.1006543E3,2.176656E4],"categories":[],"categories_nodes":[],"categories_segments":[],"categories_sizes":[],"default_left":[0,0,0,0,0,0,0,0,0,0,0,0,0,0,0,0,0,0,0,0,0,0,0,0,0,0,0,0,0,0,0],"id":36,"left_children":[1,3,5,7,9,11,13,15,17,19,21,23,25,27,29,-1,-1,-1,-1,-1,-1,-1,-1,-1,-1,-1,-1,-1,-1,-1,-1],"loss_changes":[1.42573E11,3.5991408E11,1.9437937E11,2.9425936E11,3.5396413E11,5.6856334E11,2.2116994E11,6.5854E11,2.501106E11,1.8982365E11,2.5487075E11,1.1174489E11,7.031954E10,2.248842E11,6.191159E11,0E0,0E0,0E0,0E0,0E0,0E0,0E0,0E0,0E0,0E0,0E0,0E0,0E0,0E0,0E0,0E0],"parents":[2147483647,0,0,1,1,2,2,3,3,4,4,5,5,6,6,7,7,8,8,9,9,10,10,11,11,12,12,13,13,14,14],"right_children":[2,4,6,8,10,12,14,16,18,20,22,24,26,28,30,-1,-1,-1,-1,-1,-1,-1,-1,-1,-1,-1,-1,-1,-1,-1,-1],"split_conditions":[1.2456253E0,1.2137324E0,8.350521E-1,1.0447005E0,5.173345E-1,-2.4363218E-1,1.4529285E0,9.904826E-1,1.0893503E0,1.6822188E0,9.225973E-1,8.371206E-2,2.6050966E0,3.242534E-1,4.4918826E-1,-2.512253E2,7.0037163E3,-9.065312E3,-1.0490819E3,3.0753213E3,3.2599031E4,2.799599E4,-1.1791091E4,-1.7388016E3,-1.5826937E4,-3.688282E4,1.3694542E3,9.1083215E2,-7.3845757E3,-3.1006543E3,2.176656E4],"split_indices":[0,0,14,0,3,3,0,0,0,2,5,2,9,3,3,0,0,0,0,0,0,0,0,0,0,0,0,0,0,0,0],"split_type":[0,0,0,0,0,0,0,0,0,0,0,0,0,0,0,0,0,0,0,0,0,0,0,0,0,0,0,0,0,0,0],"sum_hessian":[7.514E3,6.585E3,9.29E2,6.239E3,3.46E2,2.23E2,7.06E2,5.565E3,6.74E2,2.97E2,4.9E1,1.96E2,2.7E1,5.3E2,1.76E2,5.01E3,5.55E2,2.43E2,4.31E2,2.89E2,8E0,4.2E1,7E0,1.71E2,2.5E1,2.5E1,2E0,2.99E2,2.31E2,1.16E2,6E1],"tree_param":{"num_deleted":"0","num_feature":"15","num_nodes":"31","size_leaf_vector":"1"}},{"base_weights":[6.720793E1,-1.6667559E4,1.2088539E3,-9.8304984E4,-1.4721433E4,4.154734E3,-5.703263E3,-3.2731393E4,-2.0487592E5,-1.95891E4,5.766866E3,-5.266846E2,1.04946586E5,-3.8574223E4,-2.6623835E3,-2.8125045E4,5.542656E2,-5.0076016E4,-6.8363438E3,-1.745056E3,-1.1002419E4,1.2719226E4,-1.1146937E3,6.8490753E2,-3.5799412E3,1.7950418E4,3.4173472E5,-7.0266685E0,-2.2498576E4,2.4179244E4,-1.0026457E3],"categories":[],"categories_nodes":[],"categories_segments":[],"categories_sizes":[],"default_left":[0,0,0,0,0,0,0,0,0,0,0,0,0,0,0,0,0,0,0,0,0,0,0,0,0,0,0,0,0,0,0],"id":37,"left_children":[1,3,5,7,9,11,13,15,17,19,21,23,25,27,29,-1,-1,-1,-1,-1,-1,-1,-1,-1,-1,-1,-1,-1,-1,-1,-1],"loss_changes":[1.4359555E11,7.4813645E10,1.4329263E11,7.016476E10,4.6986183E10,2.3281575E12,2.1010607E11,3.103391E10,2.2510764E10,1.4575505E11,6.0032537E10,3.2378955E11,5.183196E12,5.070749E11,5.600457E11,0E0,0E0,0E0,0E0,0E0,0E0,0E0,0E0,0E0,0E0,0E0,0E0,0E0,0E0,0E0,0E0],"parents":[2147483647,0,0,1,1,2,2,3,3,4,4,5,5,6,6,7,7,8,8,9,9,10,10,11,11,12,12,13,13,14,14],"right_children":[2,4,6,8,10,12,14,16,18,20,22,24,26,28,30,-1,-1,-1,-1,-1,-1,-1,-1,-1,-1,-1,-1,-1,-1,-1,-1],"split_conditions":[-9.59168E-1,1.8436179E-1,9.908016E-1,-1.0500298E0,1.0893503E0,9.904826E-1,1.028754E0,-2.43667E-1,9.908016E-1,8.5653275E-1,1.1052969E0,5.9212167E-2,1.8307964E0,-7.32665E-2,1.0319433E0,-2.8125045E4,5.542656E2,-5.0076016E4,-6.8363438E3,-1.745056E3,-1.1002419E4,1.2719226E4,-1.1146937E3,6.8490753E2,-3.5799412E3,1.7950418E4,3.4173472E5,-7.0266685E0,-2.2498576E4,2.4179244E4,-1.0026457E3],"split_indices":[3,6,0,3,0,0,0,1,0,0,0,0,5,3,0,0,0,0,0,0,0,0,0,0,0,0,0,0,0,0,0],"split_type":[0,0,0,0,0,0,0,0,0,0,0,0,0,0,0,0,0,0,0,0,0,0,0,0,0,0,0,0,0,0,0],"sum_hessian":[7.514E3,4.79E2,7.035E3,1E1,4.69E2,4.933E3,2.102E3,7E0,3E0,3.79E2,9E1,4.715E3,2.18E2,1.77E2,1.925E3,1E0,6E0,2E0,1E0,2.91E2,8.8E1,1.4E1,7.6E1,3.842E3,8.73E2,2.17E2,1E0,1.17E2,6E1,3.5E1,1.89E3],"tree_param":{"num_deleted":"0","num_feature":"15","num_nodes":"31","size_leaf_vector":"1"}},{"base_weights":[8.993841E1,-9.35014E3,1.811027E3,-7.614641E3,-4.936105E4,1.8830049E4,3.864231E2,-1.0978999E4,9.085949E3,-1.9564236E4,-1.6063253E5,2.1233462E5,1.3953206E4,-5.9301616E3,5.284765E3,-5.0980347E2,-7.636392E3,1.50317295E4,2.3321375E2,-1.4061976E4,1.1186903E3,-4.248622E4,-5.9653813E3,3.8195645E3,1.1880675E5,1.7899967E4,1.7435751E3,7.331071E1,-5.369808E3,-3.3331072E3,1.6081533E3],"categories":[],"categories_nodes":[],"categories_segments":[],"categories_sizes":[],"default_left":[0,0,0,0,0,0,0,0,0,0,0,0,0,0,0,0,0,0,0,0,0,0,0,0,0,0,0,0,0,0,0],"id":38,"left_children":[1,3,5,7,9,11,13,15,17,19,21,23,25,27,29,-1,-1,-1,-1,-1,-1,-1,-1,-1,-1,-1,-1,-1,-1,-1,-1],"loss_changes":[1.2211472E11,8.010377E10,1.5412052E11,6.2579433E10,1.5600304E11,4.6038978E11,1.8156098E11,2.1225341E11,9.776719E10,5.018235E10,6.1419258E10,8.737552E11,1.890653E11,3.376088E11,2.0007014E11,0E0,0E0,0E0,0E0,0E0,0E0,0E0,0E0,0E0,0E0,0E0,0E0,0E0,0E0,0E0,0E0],"parents":[2147483647,0,0,1,1,2,2,3,3,4,4,5,5,6,6,7,7,8,8,9,9,10,10,11,11,12,12,13,13,14,14],"right_children":[2,4,6,8,10,12,14,16,18,20,22,24,26,28,30,-1,-1,-1,-1,-1,-1,-1,-1,-1,-1,-1,-1,-1,-1,-1,-1],"split_conditions":[-7.888024E-1,8.371206E-2,-1.0631261E0,1.0925397E0,8.032187E-1,-7.7744466E-1,7.87909E-4,6.8112224E-1,1.1052969E0,-1.0500298E0,8.350521E-1,-1.0990436E0,-4.0500823E-2,1.0542682E0,-1.4626641E0,-5.0980347E2,-7.636392E3,1.50317295E4,2.3321375E2,-1.4061976E4,1.1186903E3,-4.248622E4,-5.9653813E3,3.8195645E3,1.1880675E5,1.7899967E4,1.7435751E3,7.331071E1,-5.369808E3,-3.3331072E3,1.6081533E3],"split_indices":[3,2,5,0,7,3,5,0,0,3,14,5,1,0,1,0,0,0,0,0,0,0,0,0,0,0,0,0,0,0,0],"split_type":[0,0,0,0,0,0,0,0,0,0,0,0,0,0,0,0,0,0,0,0,0,0,0,0,0,0,0,0,0,0,0],"sum_hessian":[7.514E3,1.158E3,6.356E3,1.111E3,4.7E1,4.9E2,5.866E3,9.25E2,1.86E2,3.8E1,9E0,1.1E1,4.79E2,2.562E3,3.304E3,7.07E2,2.18E2,1.9E1,1.67E2,1.2E1,2.6E1,6E0,3E0,8E0,3E0,3E1,4.49E2,1.97E3,5.92E2,3.68E2,2.936E3],"tree_param":{"num_deleted":"0","num_feature":"15","num_nodes":"31","size_leaf_vector":"1"}},{"base_weights":[8.272704E1,1.8409702E1,4.8336324E4,-1.8510852E4,7.275264E2,-8.537077E3,-4.788277E4,-3.6197822E3,4.484632E3,-6.791078E2,-6.146003E3,-6.6983984E3,-2.1680896E4,1.9285487E2,-3.210919E3,-1.9172316E4,1.1108066E3],"categories":[],"categories_nodes":[],"categories_segments":[],"categories_sizes":[],"default_left":[0,0,0,0,0,0,0,0,0,0,0,0,0,0,0,0,0],"id":39,"left_children":[1,3,-1,5,7,9,11,13,15,-1,-1,-1,-1,-1,-1,-1,-1],"loss_changes":[1.16771135E11,9.874299E10,0E0,8.073807E10,1.18236635E11,2.3629666E10,5.733612E10,1.913138E11,4.172187E11,0E0,0E0,0E0,0E0,0E0,0E0,0E0,0E0],"parents":[2147483647,0,0,1,1,3,3,4,4,5,5,6,6,7,7,8,8],"right_children":[2,4,-1,6,8,10,12,14,16,-1,-1,-1,-1,-1,-1,-1,-1],"split_conditions":[1.6868032E1,1.9527437E-1,4.8336324E4,3.242534E-1,-2.549899E-1,6.013902E-1,6.013902E-1,8.371206E-2,-7.155413E-1,-6.791078E2,-6.146003E3,-6.6983984E3,-2.1680896E4,1.9285487E2,-3.210919E3,-1.9172316E4,1.1108066E3],"split_indices":[2,4,0,3,3,0,0,2,2,0,0,0,0,0,0,0,0],"split_type":[0,0,0,0,0,0,0,0,0,0,0,0,0,0,0,0,0],"sum_hessian":[7.514E3,7.513E3,1E0,2.76E2,7.237E3,2.07E2,6.9E1,3.355E3,3.882E3,1.69E2,3.8E1,5.7E1,1.2E1,2.452E3,9.03E2,4E1,3.842E3],"tree_param":{"num_deleted":"0","num_feature":"15","num_nodes":"17","size_leaf_vector":"1"}},{"base_weights":[6.51219E1,7.2350583E0,4.3502688E4,1.0428038E3,-1.295415E4,-3.6892578E2,1.3276346E4,-3.7935547E4,8.801339E3,1.7190912E2,-5.025732E3,2.3274895E3,4.127312E4,-7.000782E3,-4.321528E4,-2.4604766E3,1.4803116E4],"categories":[],"categories_nodes":[],"categories_segments":[],"categories_sizes":[],"default_left":[0,0,0,0,0,0,0,0,0,0,0,0,0,0,0,0,0],"id":40,"left_children":[1,3,-1,5,7,9,11,13,15,-1,-1,-1,-1,-1,-1,-1,-1],"loss_changes":[9.459272E10,1.0086946E11,0E0,1.2018999E11,3.0251015E11,1.8982134E11,2.2544495E11,1.27697715E11,4.1103698E11,0E0,0E0,0E0,0E0,0E0,0E0,0E0,0E0],"parents":[2147483647,0,0,1,1,3,3,4,4,5,5,6,6,7,7,8,8],"right_children":[2,4,-1,6,8,10,12,14,16,-1,-1,-1,-1,-1,-1,-1,-1],"split_conditions":[1.6868032E1,1.3413037E0,4.3502688E4,1.2137324E0,1.4369822E0,1.1212432E0,5.071777E0,3.4249089E0,4.4918826E-1,1.7190912E2,-5.025732E3,2.3274895E3,4.127312E4,-7.000782E3,-4.321528E4,-2.4604766E3,1.4803116E4],"split_indices":[2,0,0,0,0,0,3,3,3,0,0,0,0,0,0,0,0],"split_type":[0,0,0,0,0,0,0,0,0,0,0,0,0,0,0,0,0],"sum_hessian":[7.514E3,7.513E3,1E0,6.958E3,5.55E2,6.239E3,7.19E2,2.58E2,2.97E2,5.945E3,2.94E2,7.14E2,5E0,2.55E2,3E0,2.25E2,7.2E1],"tree_param":{"num_deleted":"0","num_feature":"15","num_nodes":"17","size_leaf_vector":"1"}},{"base_weights":[5.800118E1,5.371707E2,-2.8507152E4,-1.5138617E2,8.611919E4,-1.9008332E4,-1.2435791E5,8.398096E2,-1.8496014E4,-2.8612826E4,3.1127725E5,-5.0840366E3,-8.419832E4,-2.5970873E4,-6.9393374E3,-1.2902113E3,6.014416E2,-1.2605217E4,-2.0018525E3,-4.1418945E3,-3.3684363E4,3.3141547E5,3.0646213E4,-9.470089E3,2.6572522E3,-8.986455E3,-3.366608E4],"categories":[],"categories_nodes":[],"categories_segments":[],"categories_sizes":[],"default_left":[0,0,0,0,0,0,0,0,0,0,0,0,0,0,0,0,0,0,0,0,0,0,0,0,0,0,0],"id":41,"left_children":[1,3,5,7,9,11,13,15,17,19,21,23,25,-1,-1,-1,-1,-1,-1,-1,-1,-1,-1,-1,-1,-1,-1],"loss_changes":[1.0287726E11,4.356094E11,1.1053433E11,1.3337052E11,1.533044E12,1.0305254E11,9.1550515E8,1.0998698E11,1.4146542E11,4.0710468E10,4.0000558E12,7.4391536E10,5.8507215E10,0E0,0E0,0E0,0E0,0E0,0E0,0E0,0E0,0E0,0E0,0E0,0E0,0E0,0E0],"parents":[2147483647,0,0,1,1,2,2,3,3,4,4,5,5,6,6,7,7,8,8,9,9,10,10,11,11,12,12],"right_children":[2,4,6,8,10,12,14,16,18,20,22,24,26,-1,-1,-1,-1,-1,-1,-1,-1,-1,-1,-1,-1,-1,-1],"split_conditions":[1.4912E0,1.4720643E0,2.4367878E0,1.3413037E0,4.4918826E-1,9.225973E-1,4.2387903E-1,-6.9794065E-1,-8.2414186E-1,3.9242723E0,4.6054596E-1,8.350521E-1,1.19814605E-1,-2.5970873E4,-6.9393374E3,-1.2902113E3,6.014416E2,-1.2605217E4,-2.0018525E3,-4.1418945E3,-3.3684363E4,3.3141547E5,3.0646213E4,-9.470089E3,2.6572522E3,-8.986455E3,-3.366608E4],"split_indices":[0,0,3,0,3,5,1,3,1,5,3,14,3,0,0,0,0,0,0,0,0,0,0,0,0,0,0],"split_type":[0,0,0,0,0,0,0,0,0,0,0,0,0,0,0,0,0,0,0,0,0,0,0,0,0,0,0],"sum_hessian":[7.514E3,7.391E3,1.23E2,7.333E3,5.8E1,1.13E2,1E1,6.958E3,3.75E2,3.9E1,1.9E1,9.4E1,1.9E1,9E0,1E0,1.594E3,5.364E3,5.9E1,3.16E2,3.8E1,1E0,1E0,1.8E1,2.8E1,6.6E1,1.4E1,5E0],"tree_param":{"num_deleted":"0","num_feature":"15","num_nodes":"27","size_leaf_vector":"1"}},{"base_weights":[7.655142E1,8.711945E3,-1.1894578E3,-2.684954E3,2.8349338E4,-3.2519793E4,-5.5296776E1,1.3822202E4,-2.5347762E4,3.9651684E4,-3.1039193E4,-3.7422543E4,2.5261553E5,2.0214695E4,-1.3756858E3,2.144826E3,3.824135E4,-4.3269077E3,-5.0960094E4,6.588355E3,2.0257861E5,2.0057795E4,-1.7872178E4,-6.045674E3,-5.9234184E4,6.5073074E4,3.4366E3,4.7196855E3,-6.1935465E4,-4.3445723E3,1.9047246E2],"categories":[],"categories_nodes":[],"categories_segments":[],"categories_sizes":[],"default_left":[0,0,0,0,0,0,0,0,0,0,0,0,0,0,0,0,0,0,0,0,0,0,0,0,0,0,0,0,0,0,0],"id":42,"left_children":[1,3,5,7,9,11,13,15,17,19,21,23,25,27,29,-1,-1,-1,-1,-1,-1,-1,-1,-1,-1,-1,-1,-1,-1,-1,-1],"loss_changes":[8.216801E10,2.1515308E11,2.3292124E11,2.2817633E11,2.381749E11,3.2958343E11,1.6936537E11,1.9194074E11,2.1345383E11,1.9061522E12,4.455409E11,4.1174195E11,6.2919967E10,4.3930295E11,2.8144114E11,0E0,0E0,0E0,0E0,0E0,0E0,0E0,0E0,0E0,0E0,0E0,0E0,0E0,0E0,0E0,0E0],"parents":[2147483647,0,0,1,1,2,2,3,3,4,4,5,5,6,6,7,7,8,8,9,9,10,10,11,11,12,12,13,13,14,14],"right_children":[2,4,6,8,10,12,14,16,18,20,22,24,26,28,30,-1,-1,-1,-1,-1,-1,-1,-1,-1,-1,-1,-1,-1,-1,-1,-1],"split_conditions":[-1.229258E0,-1.2898543E0,-1.1335795E0,-1.3153685E0,1.6822188E0,4.049583E0,-1.0123868E0,4.049583E0,2.4367878E0,2.8002346E0,-1.2866651E0,3.4249089E0,-1.206933E0,4.049583E0,-8.593012E-1,2.144826E3,3.824135E4,-4.3269077E3,-5.0960094E4,6.588355E3,2.0257861E5,2.0057795E4,-1.7872178E4,-6.045674E3,-5.9234184E4,6.5073074E4,3.4366E3,4.7196855E3,-6.1935465E4,-4.3445723E3,1.9047246E2],"split_indices":[0,0,0,0,2,3,0,3,3,3,0,3,0,3,0,0,0,0,0,0,0,0,0,0,0,0,0,0,0,0,0],"split_type":[0,0,0,0,0,0,0,0,0,0,0,0,0,0,0,0,0,0,0,0,0,0,0,0,0,0,0,0,0,0,0],"sum_hessian":[7.514E3,9.6E2,6.554E3,6.08E2,3.52E2,2.28E2,6.326E3,3.52E2,2.56E2,2.96E2,5.6E1,2.25E2,3E0,3.86E2,5.94E3,3.47E2,5E0,2.53E2,3E0,2.95E2,1E0,1.7E1,3.9E1,2.2E2,5E0,2E0,1E0,3.83E2,3E0,6.09E2,5.331E3],"tree_param":{"num_deleted":"0","num_feature":"15","num_nodes":"31","size_leaf_vector":"1"}},{"base_weights":[7.9645706E1,2.7309269E1,3.9333562E4,1.0442985E4,-9.043375E2,6.125168E3,9.777925E4,-1.6242806E4,4.350503E2,-1.9414554E3,3.8031707E3,3.5841277E4,-2.7673547E4,-3.7373418E3,2.6765078E4,1.0071501E4,-1.6329996E1],"categories":[],"categories_nodes":[],"categories_segments":[],"categories_sizes":[],"default_left":[0,0,0,0,0,0,0,0,0,0,0,0,0,0,0,0,0],"id":43,"left_children":[1,3,-1,5,7,9,11,13,15,-1,-1,-1,-1,-1,-1,-1,-1],"loss_changes":[7.731439E10,7.292328E10,0E0,2.3207307E11,1.4172067E11,1.2039424E11,5.8243075E11,2.0568141E11,1.6367305E11,0E0,0E0,0E0,0E0,0E0,0E0,0E0,0E0],"parents":[2147483647,0,0,1,1,3,3,4,4,5,5,6,6,7,7,8,8],"right_children":[2,4,-1,6,8,10,12,14,16,-1,-1,-1,-1,-1,-1,-1,-1],"split_conditions":[1.6868032E1,-1.0631261E0,3.9333562E4,-1.0733882E0,-8.835387E-1,-5.162173E-1,1.0159969E0,4.438437E0,-8.5788333E-1,-1.9414554E3,3.8031707E3,3.5841277E4,-2.7673547E4,-3.7373418E3,2.6765078E4,1.0071501E4,-1.6329996E1],"split_indices":[2,5,0,5,5,3,0,8,5,0,0,0,0,0,0,0,0],"split_type":[0,0,0,0,0,0,0,0,0,0,0,0,0,0,0,0,0],"sum_hessian":[7.514E3,7.513E3,1E0,6.16E2,6.897E3,5.88E2,2.8E1,5.53E2,6.344E3,2.64E2,3.24E2,2.1E1,7E0,5.45E2,8E0,6.4E1,6.28E3],"tree_param":{"num_deleted":"0","num_feature":"15","num_nodes":"17","size_leaf_vector":"1"}},{"base_weights":[7.469283E1,-1.5603953E4,6.746252E2,-7.259886E3,-4.017484E4,5.1771893E2,9.512828E4,1.0528545E3,-1.6601258E4,-4.614675E3,-5.532073E4,-3.1635344E3,3.140958E3,1.2692296E5,-2.5461318E4,-3.802942E3,2.1089377E3,2.6779714E3,-4.5232944E3,9.697285E3,-1.4636929E4,-2.041028E4,-6.3405503E3,-1.1327369E3,1.6369858E4,-9.6976166E2,1.6308284E3,4.3616418E4,2.9220022E3],"categories":[],"categories_nodes":[],"categories_segments":[],"categories_sizes":[],"default_left":[0,0,0,0,0,0,0,0,0,0,0,0,0,0,0,0,0,0,0,0,0,0,0,0,0,0,0,0,0],"id":44,"left_children":[1,3,5,7,9,11,13,15,17,19,21,23,25,27,-1,-1,-1,-1,-1,-1,-1,-1,-1,-1,-1,-1,-1,-1,-1],"loss_changes":[7.069757E10,5.6499184E10,1.072354E11,1.6169176E10,3.744606E10,6.980934E10,1.0102508E11,2.1343562E10,1.7982327E10,8.365355E10,5.0845204E10,6.397984E11,1.6910816E11,1.0943565E11,0E0,0E0,0E0,0E0,0E0,0E0,0E0,0E0,0E0,0E0,0E0,0E0,0E0,0E0,0E0],"parents":[2147483647,0,0,1,1,2,2,3,3,4,4,5,5,6,6,7,7,8,8,9,9,10,10,11,11,12,12,13,13],"right_children":[2,4,6,8,10,12,14,16,18,20,22,24,26,28,-1,-1,-1,-1,-1,-1,-1,-1,-1,-1,-1,-1,-1,-1,-1],"split_conditions":[1.9527437E-1,3.242534E-1,5.6784854E0,-1.1477082E-2,-6.8389064E-1,8.350521E-1,1.642949E1,4.5184646E-2,-1.2420151E0,1.2728174E-1,1.2728174E-1,8.829654E-1,7.87909E-4,4.136099E-3,-2.5461318E4,-3.802942E3,2.1089377E3,2.6779714E3,-4.5232944E3,9.697285E3,-1.4636929E4,-2.041028E4,-6.3405503E3,-1.1327369E3,1.6369858E4,-9.6976166E2,1.6308284E3,4.3616418E4,2.9220022E3],"split_indices":[4,3,2,1,0,14,3,5,0,5,5,2,5,5,0,0,0,0,0,0,0,0,0,0,0,0,0,0,0],"split_type":[0,0,0,0,0,0,0,0,0,0,0,0,0,0,0,0,0,0,0,0,0,0,0,0,0,0,0,0,0],"sum_hessian":[7.514E3,2.76E2,7.238E3,2.07E2,6.9E1,7.227E3,1.1E1,1.1E2,9.7E1,2.1E1,4.8E1,3.007E3,4.22E3,1E1,1E0,3.5E1,7.5E1,1.6E1,8.1E1,1.2E1,9E0,1.5E1,3.3E1,2.922E3,8.5E1,1.627E3,2.593E3,5E0,5E0],"tree_param":{"num_deleted":"0","num_feature":"15","num_nodes":"29","size_leaf_vector":"1"}},{"base_weights":[5.9984642E1,-8.2411026E1,6.68042E4,3.047589E2,-2.3115234E4,5.4931904E3,1.448479E5,-2.8913205E2,7.3972266E4,-1.6524955E4,-1.1660867E5,-2.1263945E3,2.3981021E4,4.062056E4,-5.2619794E2,-2.3915354E3,2.5245276E2,5.9908857E3,1.0867481E5,-2.239626E3,-1.9726496E4,-3.679182E4,-1.2699735E4,1.5207484E3,-1.8970449E3,-8.3171564E2,8.026022E3,5.582563E2,-7.1611566E2],"categories":[],"categories_nodes":[],"categories_segments":[],"categories_sizes":[],"default_left":[0,0,0,0,0,0,0,0,0,0,0,0,0,0,0,0,0,0,0,0,0,0,0,0,0,0,0,0,0],"id":45,"left_children":[1,3,5,7,9,11,13,15,17,19,21,23,25,-1,27,-1,-1,-1,-1,-1,-1,-1,-1,-1,-1,-1,-1,-1,-1],"loss_changes":[7.142873E10,6.688917E10,7.5763335E10,3.227686E11,7.447539E10,1.4596891E9,5.9388133E10,1.3250752E11,1.2027847E12,5.006807E10,1.6934683E10,6.449426E8,1.530171E9,0E0,4.0392932E7,0E0,0E0,0E0,0E0,0E0,0E0,0E0,0E0,0E0,0E0,0E0,0E0,0E0,0E0],"parents":[2147483647,0,0,1,1,2,2,3,3,4,4,5,5,6,6,7,7,8,8,9,9,10,10,11,11,12,12,14,14],"right_children":[2,4,6,8,10,12,14,16,18,20,22,24,26,-1,28,-1,-1,-1,-1,-1,-1,-1,-1,-1,-1,-1,-1,-1,-1],"split_conditions":[1.555805E0,1.4912E0,-4.594287E-1,1.4720643E0,2.481472E0,6.013902E-1,8.350521E-1,-9.368376E-1,2.9545004E0,2.4367878E0,1.4145938E0,-8.6830634E-1,-9.250949E-1,4.062056E4,-7.32665E-2,-2.3915354E3,2.5245276E2,5.9908857E3,1.0867481E5,-2.239626E3,-1.9726496E4,-3.679182E4,-1.2699735E4,1.5207484E3,-1.8970449E3,-8.3171564E2,8.026022E3,5.582563E2,-7.1611566E2],"split_indices":[1,0,3,0,2,0,14,7,5,3,3,3,3,0,3,0,0,0,0,0,0,0,0,0,0,0,0,0,0],"split_type":[0,0,0,0,0,0,0,0,0,0,0,0,0,0,0,0,0,0,0,0,0,0,0,0,0,0,0,0,0],"sum_hessian":[7.514E3,7.499E3,1.5E1,7.376E3,1.23E2,9E0,6E0,7.318E3,5.8E1,1.16E2,7E0,7E0,2E0,4E0,2E0,8.58E2,6.46E3,5.4E1,4E0,1.1E2,6E0,2E0,5E0,3E0,4E0,1E0,1E0,1E0,1E0],"tree_param":{"num_deleted":"0","num_feature":"15","num_nodes":"29","size_leaf_vector":"1"}},{"base_weights":[5.9751583E1,8.008552E3,-1.01474414E3,-1.5748353E3,2.8316127E4,-1.6107729E4,2.1810571E2,-3.1638655E3,1.5865E5,1.6279472E4,6.53972E4,-5.184727E4,-5.297613E3,6.1529797E4,-1.0910043E3,-3.2616934E2,-6.1947E4,-3.065575E3,6.754743E4,4.8537134E3,-4.5600324E4,8.03247E3,1.8066016E5,-6.418113E3,-1.8971932E4,-5.0090793E2,-5.414234E4,3.6788848E3,1.778897E4,-3.0476184E3,1.3419063E2],"categories":[],"categories_nodes":[],"categories_segments":[],"categories_sizes":[],"default_left":[0,0,0,0,0,0,0,0,0,0,0,0,0,0,0,0,0,0,0,0,0,0,0,0,0,0,0,0,0,0,0],"id":46,"left_children":[1,3,5,7,9,11,13,15,17,19,21,23,25,27,29,-1,-1,-1,-1,-1,-1,-1,-1,-1,-1,-1,-1,-1,-1,-1,-1],"loss_changes":[6.419338E10,1.7422536E11,1.23202994E11,1.5555461E11,1.2703267E11,1.9289961E11,4.9144185E11,2.8336236E11,1.9212003E11,4.3097876E11,1.4438269E12,9.5530746E10,2.8473056E11,1.4973138E11,1.49445E11,0E0,0E0,0E0,0E0,0E0,0E0,0E0,0E0,0E0,0E0,0E0,0E0,0E0,0E0,0E0,0E0],"parents":[2147483647,0,0,1,1,2,2,3,3,4,4,5,5,6,6,7,7,8,8,9,9,10,10,11,11,12,12,13,13,14,14],"right_children":[2,4,6,8,10,12,14,16,18,20,22,24,26,28,30,-1,-1,-1,-1,-1,-1,-1,-1,-1,-1,-1,-1,-1,-1,-1,-1],"split_conditions":[-1.2420151E0,-1.2898543E0,-1.0656477E0,4.049583E0,4.2387903E-1,-4.468332E-1,-1.0130246E0,3.4249089E0,-2.0141153E0,3.0841775E0,1.959764E0,5.173345E-1,4.079979E0,-4.594287E-1,-8.593012E-1,-3.2616934E2,-6.1947E4,-3.065575E3,6.754743E4,4.8537134E3,-4.5600324E4,8.03247E3,1.8066016E5,-6.418113E3,-1.8971932E4,-5.0090793E2,-5.414234E4,3.6788848E3,1.778897E4,-3.0476184E3,1.3419063E2],"split_indices":[0,0,0,3,1,1,0,3,1,3,3,3,2,3,0,0,0,0,0,0,0,0,0,0,0,0,0,0,0,0,0],"split_type":[0,0,0,0,0,0,0,0,0,0,0,0,0,0,0,0,0,0,0,0,0,0,0,0,0,0,0,0,0,0,0],"sum_hessian":[7.514E3,8.94E2,6.62E3,6.08E2,2.86E2,4.99E2,6.121E3,6.03E2,5E0,2.17E2,6.9E1,1.15E2,3.84E2,1.27E2,5.994E3,6.01E2,2E0,3E0,2E0,2.11E2,6E0,6.8E1,1E0,8E1,3.5E1,3.81E2,3E0,5E1,7.7E1,6.63E2,5.331E3],"tree_param":{"num_deleted":"0","num_feature":"15","num_nodes":"31","size_leaf_vector":"1"}},{"base_weights":[5.9602345E1,3.483996E2,-2.8212914E4,6.487195E3,-1.0208794E3,-1.5173022E4,-5.1827543E4,4.722637E3,1.3748833E5,4.803863E3,-5.140732E3,-4.6654053E3,-5.549145E4,-3.1803547E3,2.2954102E3,5.2301E4,-1.0044128E4,2.972208E2,1.4968422E4,-2.94944E3,2.0308629E2,-1.6769983E3,9.715029E3,-1.3135291E4,8.709862E3],"categories":[],"categories_nodes":[],"categories_segments":[],"categories_sizes":[],"default_left":[0,0,0,0,0,0,0,0,0,0,0,0,0,0,0,0,0,0,0,0,0,0,0,0,0],"id":47,"left_children":[1,3,5,7,9,11,-1,13,15,17,19,21,23,-1,-1,-1,-1,-1,-1,-1,-1,-1,-1,-1,-1],"loss_changes":[6.1369995E10,6.2545207E10,2.249219E11,3.1303352E11,1.4602294E11,3.06676E10,0E0,1.8685228E11,4.321557E11,5.856935E11,2.1078629E11,1.2091236E10,1.7991127E10,0E0,0E0,0E0,0E0,0E0,0E0,0E0,0E0,0E0,0E0,0E0,0E0],"parents":[2147483647,0,0,1,1,2,2,3,3,4,4,5,5,7,7,8,8,9,9,10,10,11,11,12,12],"right_children":[2,4,6,8,10,12,-1,14,16,18,20,22,24,-1,-1,-1,-1,-1,-1,-1,-1,-1,-1,-1,-1],"split_conditions":[9.95925E0,4.850214E-1,8.1263506E-1,4.049583E0,-6.3286215E-1,2.5610715E-1,-5.1827543E4,-8.0827266E-1,1.2728174E-1,-7.0302635E-1,9.904826E-1,1.9931859E-1,1.1204488E0,-3.1803547E3,2.2954102E3,5.2301E4,-1.0044128E4,2.972208E2,1.4968422E4,-2.94944E3,2.0308629E2,-1.6769983E3,9.715029E3,-1.3135291E4,8.709862E3],"split_indices":[11,10,3,3,0,3,0,0,5,0,0,3,1,0,0,0,0,0,0,0,0,0,0,0,0],"split_type":[0,0,0,0,0,0,0,0,0,0,0,0,0,0,0,0,0,0,0,0,0,0,0,0,0],"sum_hessian":[7.514E3,7.439E3,7.5E1,1.356E3,6.083E3,7.2E1,3E0,1.339E3,1.7E1,2.52E3,3.563E3,5.8E1,1.4E1,3.3E2,1.009E3,1E1,7E0,2.407E3,1.13E2,1.391E3,2.172E3,5.5E1,3E0,1.3E1,1E0],"tree_param":{"num_deleted":"0","num_feature":"15","num_nodes":"25","size_leaf_vector":"1"}},{"base_weights":[4.8434303E1,4.6631244E2,-2.019698E4,-9.812551E1,1.3398636E5,-8.56539E3,-7.37297E4,7.0020154E2,-1.825006E4,5.8470055E4,8.1931525E5,-2.76592E3,-7.556264E4,-4.7402133E4,-1.1374635E5,4.1763237E1,2.231444E4,-1.729659E3,-1.4318158E4,-5.1176895E3,6.5261883E4,-4.1397633E4,2.8719222E5,-2.5060916E3,3.0493373E4,-1.9744717E4,-8.733619E3,-1.3827994E3,-1.1695264E4,1.4254938E3,-2.5593744E4],"categories":[],"categories_nodes":[],"categories_segments":[],"categories_sizes":[],"default_left":[0,0,0,0,0,0,0,0,0,0,0,0,0,0,0,0,0,0,0,0,0,0,0,0,0,0,0,0,0,0,0],"id":48,"left_children":[1,3,5,7,9,11,13,15,17,19,21,23,25,27,29,-1,-1,-1,-1,-1,-1,-1,-1,-1,-1,-1,-1,-1,-1,-1,-1],"loss_changes":[6.3587193E10,5.549921E11,9.401441E10,1.0629109E11,1.5564533E12,4.874812E10,2.3053795E10,3.8275934E11,1.576399E11,6.612608E11,2.1958239E12,1.792563E11,3.0760018E9,7.6664054E9,1.8103198E10,0E0,0E0,0E0,0E0,0E0,0E0,0E0,0E0,0E0,0E0,0E0,0E0,0E0,0E0,0E0,0E0],"parents":[2147483647,0,0,1,1,2,2,3,3,4,4,5,5,6,6,7,7,8,8,9,9,10,10,11,11,12,12,13,13,14,14],"right_children":[2,4,6,8,10,12,14,16,18,20,22,24,26,28,30,-1,-1,-1,-1,-1,-1,-1,-1,-1,-1,-1,-1,-1,-1,-1,-1],"split_conditions":[1.4816321E0,1.4720643E0,9.225973E-1,2.1335294E0,2.9545004E0,2.4367878E0,1.19814605E-1,2.0103838E0,5.9683853E-1,6.6498476E-1,-3.3073825E-1,1.4145938E0,-7.296066E-1,-3.799247E-1,1.9527437E-1,4.1763237E1,2.231444E4,-1.729659E3,-1.4318158E4,-5.1176895E3,6.5261883E4,-4.1397633E4,2.8719222E5,-2.5060916E3,3.0493373E4,-1.9744717E4,-8.733619E3,-1.3827994E3,-1.1695264E4,1.4254938E3,-2.5593744E4],"split_indices":[0,0,5,5,5,3,3,5,3,3,1,3,5,3,4,0,0,0,0,0,0,0,0,0,0,0,0,0,0,0,0],"split_type":[0,0,0,0,0,0,0,0,0,0,0,0,0,0,0,0,0,0,0,0,0,0,0,0,0,0,0,0,0,0,0],"sum_hessian":[7.514E3,7.363E3,1.51E2,7.333E3,3E1,1.25E2,2.6E1,7.025E3,3.08E2,2.8E1,2E0,1.16E2,9E0,1.7E1,9E0,6.995E3,3E1,2.62E2,4.6E1,2.2E1,6E0,1E0,1E0,1.1E2,6E0,4E0,5E0,4E0,1.3E1,1E0,8E0],"tree_param":{"num_deleted":"0","num_feature":"15","num_nodes":"31","size_leaf_vector":"1"}},{"base_weights":[7.5283775E1,-1.2441277E4,6.8477234E2,-8.098718E4,-1.0180374E4,1.7244059E4,-1.101463E1,-2.6091422E4,-1.7053189E5,-4.1003833E3,-2.4466883E4,1.135712E3,6.1579562E4,-1.945176E4,7.4336896E2,-2.3649943E4,7.933732E2,-4.1965965E4,-5.263806E3,-1.9238903E3,2.2282244E3,-8.177289E2,-1.3266901E4,9.1989435E2,-3.619912E4,9.078722E3,5.7115707E4,-1.5197899E3,-1.0727588E4,7.863668E3,-5.088525E1],"categories":[],"categories_nodes":[],"categories_segments":[],"categories_sizes":[],"default_left":[0,0,0,0,0,0,0,0,0,0,0,0,0,0,0,0,0,0,0,0,0,0,0,0,0,0,0,0,0,0,0],"id":49,"left_children":[1,3,5,7,9,11,13,15,17,19,21,23,25,27,29,-1,-1,-1,-1,-1,-1,-1,-1,-1,-1,-1,-1,-1,-1,-1,-1],"loss_changes":[5.73382E10,5.326202E10,8.257647E10,4.962245E10,2.9345837E10,2.0632565E11,1.0090035E11,2.2630046E10,1.714656E10,2.0211587E10,8.59008E10,1.3520546E11,2.6621057E11,1.037294E11,2.5492873E11,0E0,0E0,0E0,0E0,0E0,0E0,0E0,0E0,0E0,0E0,0E0,0E0,0E0,0E0,0E0,0E0],"parents":[2147483647,0,0,1,1,2,2,3,3,4,4,5,5,6,6,7,7,8,8,9,9,10,10,11,11,12,12,13,13,14,14],"right_children":[2,4,6,8,10,12,14,16,18,20,22,24,26,28,30,-1,-1,-1,-1,-1,-1,-1,-1,-1,-1,-1,-1,-1,-1,-1,-1],"split_conditions":[-1.0159566E0,1.8436179E-1,-1.3185579E0,-1.0500298E0,8.032187E-1,-1.3217472E0,-1.2898543E0,-2.43667E-1,9.908016E-1,1.0319433E0,5.567402E-1,3.0841775E0,2.8002346E0,-2.783565E-2,-1.2770972E0,-2.3649943E4,7.933732E2,-4.1965965E4,-5.263806E3,-1.9238903E3,2.2282244E3,-8.177289E2,-1.3266901E4,9.1989435E2,-3.619912E4,9.078722E3,5.7115707E4,-1.5197899E3,-1.0727588E4,7.863668E3,-5.088525E1],"split_indices":[3,6,0,3,7,0,0,1,0,0,0,3,3,3,0,0,0,0,0,0,0,0,0,0,0,0,0,0,0,0,0],"split_type":[0,0,0,0,0,0,0,0,0,0,0,0,0,0,0,0,0,0,0,0,0,0,0,0,0,0,0,0,0,0,0],"sum_hessian":[7.514E3,3.48E2,7.166E3,1E1,3.38E2,2.88E2,6.878E3,7E0,3E0,2.38E2,1E2,2.12E2,7.6E1,2.56E2,6.622E3,1E0,6E0,2E0,1E0,1.75E2,6.3E1,6.8E1,3.2E1,2.09E2,3E0,7.2E1,4E0,1.91E2,6.5E1,1.66E2,6.456E3],"tree_param":{"num_deleted":"0","num_feature":"15","num_nodes":"31","size_leaf_vector":"1"}},{"base_weights":[5.258565E1,-1.4747798E4,5.5759973E2,-3.990086E4,4.6097227E4,1.72693E3,-9.005923E3,1.44125205E4,-6.671941E4,9.19118E3,3.0751897E5,3.0925261E3,-8.564993E3,-2.9365344E3,-6.2245414E4,8.864791E3,-6.866501E3,-2.6002451E4,-4.5980327E3,-7.0194683E3,2.7261135E4,3.0474616E5,-6.994767E3,-1.22848465E2,2.9878813E3,-9.7903E3,-4.298398E2,-1.2414767E3,1.743894E4,-1.4060367E4,1.0035356E4],"categories":[],"categories_nodes":[],"categories_segments":[],"categories_sizes":[],"default_left":[0,0,0,0,0,0,0,0,0,0,0,0,0,0,0,0,0,0,0,0,0,0,0,0,0,0,0,0,0,0,0],"id":50,"left_children":[1,3,5,7,9,11,13,15,17,19,21,23,25,27,29,-1,-1,-1,-1,-1,-1,-1,-1,-1,-1,-1,-1,-1,-1,-1,-1],"loss_changes":[5.6178356E10,3.8138813E11,8.1293E10,2.5732422E11,7.014807E11,9.105819E10,2.5573709E11,8.754573E10,3.236054E11,3.707153E11,3.8021848E12,2.5115129E11,1.9656044E11,2.1044286E11,7.689083E10,0E0,0E0,0E0,0E0,0E0,0E0,0E0,0E0,0E0,0E0,0E0,0E0,0E0,0E0,0E0,0E0],"parents":[2147483647,0,0,1,1,2,2,3,3,4,4,5,5,6,6,7,7,8,8,9,9,10,10,11,11,12,12,13,13,14,14],"right_children":[2,4,6,8,10,12,14,16,18,20,22,24,26,28,30,-1,-1,-1,-1,-1,-1,-1,-1,-1,-1,-1,-1,-1,-1,-1,-1],"split_conditions":[1.8436179E-1,8.829654E-1,1.0662673E0,-3.9655592E-2,1.9128935E0,1.2456253E0,9.943584E-1,4.136099E-3,9.9367195E-1,1.754666E-2,2.1335294E0,9.904826E-1,-6.499994E-1,1.4720643E0,4.438437E0,8.864791E3,-6.866501E3,-2.6002451E4,-4.5980327E3,-7.0194683E3,2.7261135E4,3.0474616E5,-6.994767E3,-1.22848465E2,2.9878813E3,-9.7903E3,-4.298398E2,-1.2414767E3,1.743894E4,-1.4060367E4,1.0035356E4],"split_indices":[6,2,5,0,5,0,3,5,0,1,5,0,1,0,8,0,0,0,0,0,0,0,0,0,0,0,0,0,0,0,0],"split_type":[0,0,0,0,0,0,0,0,0,0,0,0,0,0,0,0,0,0,0,0,0,0,0,0,0,0,0,0,0,0,0],"sum_hessian":[7.514E3,2.47E2,7.267E3,1.75E2,7.2E1,6.476E3,7.91E2,5.8E1,1.17E2,6.4E1,8E0,5.718E3,7.58E2,7.11E2,8E1,3.6E1,2.2E1,4.7E1,7E1,4.8E1,1.6E1,1E0,7E0,4.356E3,1.362E3,1.03E2,6.55E2,6.87E2,2.4E1,7.5E1,5E0],"tree_param":{"num_deleted":"0","num_feature":"15","num_nodes":"31","size_leaf_vector":"1"}},{"base_weights":[8.121877E1,-3.64383E3,2.678976E3,-4.0470164E3,3.0822453E5,-9.138936E3,5.235921E3,3.605113E3,-1.5192995E4,1.6178612E5,-2.5664209E4,1.9032758E5,-1.1428756E4,1.11838336E5,4.616234E3,2.9688705E1,2.5331916E4,-1.2507181E3,-1.6622826E4,5.004944E3,5.3761645E4,1.2659061E3,-6.454313E3,-9.249829E3,2.1515592E5,-1.2046263E3,1.5935702E3],"categories":[],"categories_nodes":[],"categories_segments":[],"categories_sizes":[],"default_left":[0,0,0,0,0,0,0,0,0,0,0,0,0,0,0,0,0,0,0,0,0,0,0,0,0,0,0],"id":51,"left_children":[1,3,5,7,9,11,13,15,17,-1,-1,19,21,23,25,-1,-1,-1,-1,-1,-1,-1,-1,-1,-1,-1,-1],"loss_changes":[7.2730714E10,3.895357E11,1.3385202E11,2.631759E11,9.781269E11,3.6208824E11,2.4000866E11,7.783875E11,7.6209154E11,0E0,0E0,1.10030815E11,2.8890766E11,3.2498817E12,1.2916952E11,0E0,0E0,0E0,0E0,0E0,0E0,0E0,0E0,0E0,0E0,0E0,0E0],"parents":[2147483647,0,0,1,1,2,2,3,3,4,4,5,5,6,6,7,7,8,8,11,11,12,12,13,13,14,14],"right_children":[2,4,6,8,10,12,14,16,18,-1,-1,20,22,24,26,-1,-1,-1,-1,-1,-1,-1,-1,-1,-1,-1,-1],"split_conditions":[8.350521E-1,3.0841775E0,-5.1923287E-1,-3.653008E-1,-1.2770972E0,-1.3185579E0,-5.0897074E-1,8.829654E-1,-1.6477939E-2,1.6178612E5,-2.5664209E4,-1.3281257E0,5.280367E-1,2.481472E0,-7.370706E-1,2.9688705E1,2.5331916E4,-1.2507181E3,-1.6622826E4,5.004944E3,5.3761645E4,1.2659061E3,-6.454313E3,-9.249829E3,2.1515592E5,-1.2046263E3,1.5935702E3],"split_indices":[14,3,5,5,0,0,5,2,3,0,0,0,0,2,1,0,0,0,0,0,0,0,0,0,0,0,0],"split_type":[0,0,0,0,0,0,0,0,0,0,0,0,0,0,0,0,0,0,0,0,0,0,0,0,0,0,0],"sum_hessian":[7.514E3,3.087E3,4.427E3,3.084E3,3E0,7.87E2,3.64E3,1.829E3,1.255E3,1E0,2E0,8E0,7.79E2,2E1,3.62E3,1.78E3,4.9E1,1.11E3,1.45E2,3E0,5E0,4.21E2,3.58E2,1.8E1,2E0,8.67E2,2.753E3],"tree_param":{"num_deleted":"0","num_feature":"15","num_nodes":"27","size_leaf_vector":"1"}},{"base_weights":[1.1866763E2,4.292341E3,-2.1030613E3,3.1027523E4,9.255454E2,7.275131E2,-1.3397303E4,2.2616479E4,1.964314E5,-9.074888E3,9.244038E3,-4.6079595E3,1.2153984E4,-2.2637113E4,1.26550205E4,2.9321177E3,4.3023625E4,6.986574E3,6.263774E4,1.8817529E3,-3.989084E3,1.3658392E3,3.7280855E4,-7.276364E2,-2.145177E4,1.3919298E2,6.527751E3,-2.061952E3,-1.2641064E4,-1.3358909E3,3.5663918E4],"categories":[],"categories_nodes":[],"categories_segments":[],